-885 885 -1770 2655 3540 -3540 3540 885 3540 885 1770 -885 11505 8850 4425 6195 -1770 -885 -1770 2655 -3540 -1770 -885 -2655 0 -4425 4425 -3540 3540 885 -1770 2655 4425 11505 20355 23895 23895 26550 20355 11505 12390 5310 3540 13275 15930 6195 13275 18585 23010 23010 23010 18585 1770 0 3540 -3540 0 -2655 2655 -12390 -3540 13275 26550 23010 43365 55755 62835 49560 41595 18585 23010 24780 24780 33630 26550 32745 32745 29205 28320 41595 28320 12390 2655 -3540 -2655 1770 -3540 -885 17700 14160 26550 17700 26550 33630 24780 9735 3540 5310 -2655 -14160 -7080 -885 6195 11505 15930 22125 38055 30090 26550 12390 5310 -1770 885 -3540 -12390 885 -5310 -13275 0 -15930 -19470 -20355 -14160 -22125 -18585 -32745 -25665 -36285 -38940 -22125 -14160 -14160 -23010 -21240 -10620 7080 0 -2655 -15045 -16815 -885 885 -2655 -7080 -4425 -7965 -9735 -11505 3540 -7080 -7080 -22125 -21240 -28320 -31860 -32745 -26550 -29205 -23010 -41595 -34515 -43365 -33630 -18585 -8850 885 -3540 9735 2655 -15045 9735 17700 1770 4425 8850 3540 11505 4425 0 0 -3540 -8850 -3540 -4425 -5310 -8850 -14160 -25665 -25665 -21240 -23895 -34515 -17700 0 10620 9735 1770 -6195 38055 30975 -2655 -9735 4425 -885 3540 8850 8850 7965 2655 3540 6195 10620 7965 885 -7965 -16815 -4425 -885 -7965 -18585 -8850 11505 2655 8850 -15930 19470 29205 14160 8850 5310 2655 885 8850 0 -1770 2655 1770 -5310 7965 3540 -7080 -9735 -16815 -7965 0 5310 0 -3540 -7080 1770 -17700 -24780 18585 21240 8850 7965 12390 3540 7080 -2655 7965 9735 8850 16815 15930 6195 26550 19470 7965 4425 1770 -1770 -2655 0 2655 -10620 5310 19470 -885 12390 13275 15045 12390 7965 1770 11505 10620 6195 5310 7965 16815 19470 15930 23895 31860 32745 27435 12390 5310 4425 4425 8850 -1770 -3540 6195 44250 20355 -5310 0 11505 37170 7080 10620 11505 7965 12390 7965 4425 10620 20355 13275 15045 20355 23895 23010 15930 16815 4425 2655 7080 7965 -8850 -8850 15045 -20355 -4425 3540 15930 30975 10620 20355 6195 11505 12390 10620 -1770 0 5310 -7965 -10620 885 18585 25665 13275 6195 1770 -7965 -9735 -11505 -15045 -20355 4425 4425 16815 -15930 9735 31860 19470 23010 11505 6195 9735 7080 885 10620 -3540 -9735 -9735 8850 17700 24780 22125 5310 3540 9735 1770 -7965 -885 15930 17700 10620 14160 1770 3540 28320 16815 14160 13275 14160 13275 4425 7080 13275 0 -12390 -6195 0 16815 32745 23895 28320 19470 23010 14160 21240 23010 8850 17700 30090 15930 14160 -1770 -4425 5310 2655 12390 25665 10620 -3540 2655 11505 7965 -15930 -17700 -9735 23895 24780 38055 32745 24780 30090 21240 14160 11505 7965 15930 10620 19470 7080 -4425 -885 -1770 4425 9735 20355 14160 4425 885 7080 -885 -10620 -16815 -1770 22125 27435 34515 30975 21240 17700 17700 7080 -7965 -7080 26550 37170 17700 2655 -16815 -5310 885 -8850 0 22125 13275 13275 7080 2655 0 -10620 1770 21240 31860 16815 23895 24780 10620 7965 7080 885 -885 15045 74340 41595 -8850 14160 -15045 -7965 -4425 -1770 -4425 6195 10620 4425 -8850 2655 -4425 -5310 19470 31860 26550 19470 16815 17700 13275 5310 0 -6195 -885 16815 70800 44250 19470 -17700 4425 -6195 -3540 0 -12390 -10620 -3540 -4425 -12390 -8850 7080 14160 20355 27435 19470 7965 3540 -6195 -7080 -7965 -18585 -20355 -6195 18585 50445 32745 3540 -3540 -15045 -8850 -9735 885 -16815 -30090 -23895 -18585 -15045 -10620 -4425 4425 17700 15930 2655 885 -20355 -25665 -21240 -31860 -36285 -38055 -14160 28320 44250 22125 7080 -8850 0 -12390 -20355 -885 -28320 -37170 -33630 -21240 -9735 -12390 -7965 1770 -885 -2655 -7080 -3540 -24780 -33630 -47790 -47790 -35400 -32745 -12390 32745 9735 -3540 2655 -6195 -12390 -23010 -26550 -2655 -24780 -37170 -21240 -15045 -6195 -8850 -19470 -8850 -17700 -18585 -22125 -26550 -44250 -49560 -52215 -41595 -44250 -28320 -16815 15045 2655 -17700 -2655 -885 -1770 -18585 -43365 885 6195 7965 9735 -11505 -15930 -14160 -17700 -30090 -31860 -29205 -28320 -36285 -39825 -40710 -37170 -26550 -27435 -9735 -3540 29205 4425 -7080 3540 -885 -885 -12390 -17700 13275 35400 21240 15045 0 -6195 -12390 -17700 -23010 -22125 -20355 -14160 -20355 3540 -6195 -8850 8850 22125 11505 16815 29205 15045 14160 -3540 885 -3540 -7080 18585 15045 29205 13275 11505 15930 2655 7080 13275 18585 7965 12390 10620 10620 17700 16815 16815 23895 40710 23895 -885 2655 13275 15045 -4425 -3540 2655 2655 7965 -7965 0 16815 28320 32745 44250 41595 35400 27435 38055 54870 49560 41595 41595 45135 49560 38940 37170 36285 5310 4425 3540 -3540 4425 -2655 -885 -885 -2655 -1770 7080 12390 8850 16815 18585 29205 10620 12390 31860 40710 23010 15045 31860 26550 24780 14160 17700 19470 17700 -2655 -4425 2655 885
-2655 4425 -1770 2655 2655 -3540 2655 -4425 -2655 -885 -2655 4425 6195 7965 -6195 885 -1770 -3540 885 1770 3540 -2655 -2655 885 885 1770 2655 -885 2655 3540 -885 3540 10620 15930 13275 16815 16815 23895 24780 23010 29205 31860 32745 24780 9735 15930 15930 18585 12390 6195 3540 -4425 885 -4425 -3540 -4425 -1770 -1770 2655 10620 19470 25665 22125 26550 17700 4425 -1770 3540 11505 24780 24780 24780 29205 19470 13275 15930 5310 10620 20355 7080 -6195 -10620 -885 4425 885 0 0 10620 14160 -15045 -6195 -2655 7080 0 3540 7080 15930 28320 39825 38055 34515 37170 23895 28320 40710 39825 30975 15930 12390 6195 8850 -1770 4425 885 -2655 -3540 -6195 -19470 -17700 -5310 -10620 -4425 -885 2655 -5310 -885 -1770 8850 8850 19470 18585 8850 7965 28320 27435 28320 7965 2655 1770 -1770 -1770 0 -1770 -16815 -31860 -9735 7080 1770 7965 7080 10620 -9735 -10620 6195 5310 -885 -3540 10620 19470 10620 10620 14160 19470 22125 14160 11505 2655 -11505 -3540 4425 25665 -4425 -5310 23895 14160 11505 885 3540 5310 -885 885 5310 7965 -6195 -8850 -5310 7965 5310 4425 11505 19470 16815 21240 26550 10620 -885 885 15930 2655 8850 -13275 19470 12390 12390 -1770 -2655 5310 7080 7965 7965 7080 -13275 -2655 6195 8850 8850 6195 -885 -885 6195 13275 31860 11505 -3540 1770 30975 27435 12390 -22125 2655 -1770 -6195 -11505 -8850 -7965 8850 23895 18585 15930 -885 0 -1770 5310 -5310 3540 -6195 -7965 13275 15930 20355 3540 -885 14160 35400 36285 -885 -6195 -15045 -18585 -10620 -6195 -6195 10620 25665 43365 42480 16815 -19470 -23010 -20355 -7080 -12390 -12390 -5310 -13275 2655 19470 30975 7965 20355 19470 28320 47790 -1770 -6195 -5310 -19470 0 4425 10620 15930 40710 57525 46020 -4425 -32745 -34515 -19470 -14160 -16815 -12390 -15045 -19470 -22125 885 20355 36285 11505 12390 29205 45135 -5310 -9735 -11505 0 11505 7965 14160 30090 42480 45135 15930 -38940 -56640 -32745 -9735 -9735 -15045 -23895 -20355 -29205 -28320 -18585 -15045 885 6195 11505 30975 41595 4425 0 885 19470 23895 15045 11505 42480 41595 26550 -6195 -50445 -51330 -26550 -9735 -4425 -19470 -15930 -29205 -21240 -22125 -9735 -20355 -8850 -6195 1770 24780 31860 4425 15930 24780 32745 33630 20355 28320 36285 27435 -7080 -30090 -45135 -43365 -29205 -12390 -9735 -13275 -11505 -4425 8850 15930 20355 -8850 -20355 -16815 14160 23010 35400 -7080 17700 31860 36285 38940 30090 24780 12390 -6195 -25665 -43365 -43365 -31860 -22125 -16815 -10620 -7965 2655 5310 24780 46020 40710 -16815 -41595 -10620 16815 15045 43365 -4425 20355 32745 21240 32745 21240 7080 3540 -15930 -26550 -33630 -41595 -28320 -13275 -8850 8850 7080 12390 13275 27435 39825 30975 -16815 -37170 -15045 5310 15930 8850 -1770 4425 19470 3540 -885 -3540 -12390 -14160 -15045 -31860 -50445 -36285 -15045 -10620 0 14160 20355 20355 26550 27435 22125 17700 -24780 -56640 -17700 4425 19470 -5310 5310 9735 1770 -9735 -18585 -26550 -22125 -14160 -11505 -39825 -60180 -25665 885 -885 18585 29205 15045 19470 27435 25665 10620 7965 -13275 -29205 5310 13275 -3540 15045 12390 13275 -11505 -16815 -20355 -22125 -22125 -16815 -25665 -58410 -54870 -11505 10620 21240 24780 24780 21240 23010 26550 18585 0 -4425 -10620 -26550 -18585 -2655 18585 30975 19470 23010 -13275 -13275 -13275 -15930 -20355 -24780 -21240 -29205 -20355 10620 27435 30090 26550 23010 11505 15930 13275 -885 -6195 4425 -15930 -24780 -10620 -3540 4425 16815 8850 18585 0 -15045 -17700 -3540 -885 -5310 7965 7965 12390 20355 30090 36285 25665 16815 9735 6195 0 -1770 0 -4425 -7080 -1770 7080 4425 -4425 -14160 12390 14160 -4425 -7080 -12390 7965 1770 4425 22125 22125 15930 19470 23010 24780 15045 17700 9735 10620 11505 1770 -1770 6195 -1770 8850 7080 -2655 -16815 -30090 -7965 -4425 2655 -9735 -7965 3540 6195 7080 16815 15045 19470 12390 15930 15045 20355 16815 15930 12390 3540 -5310 -4425 -7965 -885 17700 9735 885 4425 -15045 -2655 1770 10620 885 0 -885 17700 27435 17700 13275 1770 9735 13275 6195 15045 2655 -2655 1770 -885 -16815 -22125 -3540 3540 16815 -2655 -4425 1770 -7080 11505 3540 14160 12390 7965 19470 35400 25665 14160 15045 16815 7965 15045 5310 27435 12390 -1770 -5310 -1770 -2655 -19470 -885 -17700 885 2655 -885 4425 -23895 9735 14160 -8850 -7965 -4425 11505 15930 -6195 0 2655 1770 -10620 -9735 0 -6195 5310 5310 -8850 4425 19470 11505 17700 -11505 -885 2655 2655 1770 3540 885 -885 -11505 -8850 -5310 -3540 5310 7080 7080 -885 -6195 -23010 885 -7080 -16815 -15045 11505 1770 1770 8850 -16815 -7080 5310 1770 4425 885 885 1770 885 5310 15045 0 -1770 3540 7965 9735 6195 -2655 48675 -11505 0 7080 33630 17700 6195 9735 14160 30090 23895 0 0 885 1770
-1770 -2655 885 -885 -1770 1770 0 -885 -1770 -885 -3540 885 -9735 -7080 6195 5310 885 3540 -1770 2655 885 -2655 1770 -2655 -1770 -1770 -2655 3540 -4425 2655 -4425 -885 -7080 -9735 -23895 -28320 -22125 -22125 -27435 -34515 -37170 -22125 9735 -20355 -2655 -13275 -27435 -25665 -28320 -20355 -21240 -15045 3540 -885 1770 -4425 1770 1770 0 -10620 -18585 -5310 -31860 -38055 -7080 15930 6195 16815 3540 10620 22125 13275 -2655 -7965 -885 -6195 15045 16815 7080 3540 19470 11505 2655 -3540 2655 -3540 -9735 -15930 -7965 -4425 -3540 -7080 -16815 18585 7080 10620 -7080 885 -3540 -6195 -7080 -10620 -18585 -15930 -20355 -9735 7965 10620 5310 3540 5310 3540 885 -6195 -18585 -23895 -2655 -2655 -3540 -3540 3540 7965 -10620 -9735 0 5310 1770 -9735 -7080 -1770 -12390 -8850 10620 -885 2655 -3540 -14160 -9735 -2655 23010 -885 1770 -9735 -16815 7080 -14160 -6195 -9735 2655 2655 -3540 4425 11505 14160 17700 8850 7965 8850 3540 9735 6195 4425 -5310 -3540 -7965 -13275 -7080 8850 885 -12390 -10620 -7080 7080 -7965 -13275 -3540 -5310 -1770 1770 4425 2655 9735 10620 13275 14160 7080 5310 7965 -3540 2655 -4425 -3540 -23010 -11505 -11505 885 1770 -28320 8850 -3540 3540 -6195 -4425 -8850 -5310 -7965 -6195 -1770 4425 11505 3540 13275 7965 -1770 885 -1770 -9735 1770 2655 -10620 -16815 -18585 1770 -6195 11505 -20355 0 -2655 6195 -5310 1770 -3540 -3540 885 0 0 3540 9735 8850 3540 2655 885 -7080 0 -11505 -7965 -13275 -4425 -20355 -22125 -6195 2655 -12390 -23010 -17700 -16815 -15045 7080 -1770 -7080 -4425 3540 14160 8850 13275 15930 5310 -2655 -1770 -1770 2655 0 -7080 -10620 -8850 -8850 -34515 -56640 -32745 -18585 -10620 -9735 -28320 -21240 -16815 2655 2655 3540 9735 10620 19470 25665 15930 -3540 -16815 -17700 -9735 3540 9735 12390 2655 0 -3540 -15930 -59295 -72570 -58410 -7080 -6195 -16815 -33630 -30090 -18585 11505 8850 13275 22125 21240 23895 19470 5310 -16815 -25665 -23010 -5310 -5310 7080 12390 16815 19470 23010 5310 -28320 -64605 -47790 -15930 -4425 -15930 -32745 -24780 -13275 1770 2655 12390 17700 19470 12390 6195 -1770 -10620 -22125 -13275 2655 4425 7965 21240 30975 55755 57525 59295 53100 -7080 -36285 -11505 -7080 -12390 -22125 -21240 -1770 0 16815 11505 14160 13275 6195 4425 0 -11505 -12390 5310 7080 9735 7080 20355 20355 39825 47790 45135 43365 29205 21240 19470 -15045 -21240 -35400 -7080 7080 15045 26550 23010 9735 0 2655 15930 -885 1770 -2655 2655 9735 15045 14160 16815 10620 7080 5310 1770 5310 49560 52215 16815 -10620 -15045 -32745 2655 14160 25665 17700 26550 20355 7080 8850 4425 885 -885 885 7965 17700 15930 3540 1770 -8850 -9735 -7965 -12390 -885 51330 56640 27435 13275 -18585 -14160 -5310 3540 14160 17700 30090 31860 23895 20355 18585 7080 -885 7965 16815 29205 19470 6195 -3540 -2655 -1770 -7080 -7080 -3540 75225 64605 32745 1770 -25665 -4425 -20355 -9735 -6195 -885 22125 33630 38055 36285 30975 28320 18585 21240 18585 19470 7965 6195 -8850 2655 885 -885 -7080 885 69030 36285 14160 -12390 -21240 -7965 -26550 -19470 -8850 -8850 12390 15930 29205 28320 22125 26550 10620 14160 7080 8850 4425 3540 -885 2655 -3540 -4425 -1770 15045 42480 14160 17700 -11505 -14160 -9735 -20355 -20355 -13275 -5310 5310 -6195 0 11505 11505 7080 4425 7080 10620 15045 7080 9735 8850 6195 2655 7965 -4425 -1770 24780 30975 12390 -3540 -12390 3540 -17700 -7965 -11505 -5310 2655 -10620 -15045 2655 1770 4425 1770 3540 7965 12390 4425 2655 4425 7965 7965 3540 0 11505 7080 7965 -12390 -13275 -1770 5310 -8850 -11505 0 -5310 -885 -1770 8850 5310 2655 -1770 -885 1770 -1770 5310 7965 4425 12390 3540 1770 0 7080 8850 -2655 1770 7965 -15045 -19470 -4425 -10620 -17700 -2655 7965 3540 11505 7080 10620 9735 10620 4425 -885 -1770 -1770 3540 1770 2655 2655 10620 7080 6195 7965 1770 -18585 7965 -2655 -3540 -22125 -31860 -34515 -30975 -15045 -4425 7080 3540 -1770 7965 14160 7965 8850 1770 7080 5310 16815 15045 20355 35400 28320 14160 3540 -3540 -21240 -2655 1770 -3540 -12390 -45135 -38940 -36285 -36285 -23895 -7965 -10620 -5310 -885 -4425 -14160 -9735 -6195 3540 885 17700 15930 19470 20355 14160 13275 9735 34515 10620 2655 3540 2655 7965 -23895 -22125 -15045 -17700 -30975 -41595 -40710 -30975 -35400 -42480 -38055 -15930 -15930 -19470 -15045 -8850 -17700 -885 -10620 -23895 -15930 -26550 17700 8850 -3540 -1770 0 -1770 7965 31860 12390 13275 2655 0 -885 -6195 -23010 -14160 -22125 -15045 -31860 -26550 -21240 -11505 -18585 -11505 -16815 -18585 7080 1770 -1770 -1770 885 -3540 -1770 -885 -885 -8850 -6195 -885 -1770 -9735 -5310 -23895 -19470 -13275 -38055 -18585 -10620 -7080 -21240 -4425 -11505 -3540 -12390 -14160 -15930 885 3540 -885 0
2655 1770 885 1770 0 -3540 0 -885 4425 4425 885 4425 7080 13275 -885 -4425 -3540 -1770 -885 0 -4425 885 -1770 -885 -2655 -885 -4425 -2655 0 2655 4425 -3540 9735 10620 18585 28320 23010 30090 27435 9735 16815 15045 2655 11505 -15045 -2655 22125 27435 33630 19470 25665 14160 -3540 885 -2655 885 3540 -1770 -1770 14160 6195 20355 28320 39825 38055 29205 48675 45135 57525 59295 63720 57525 31860 13275 11505 17700 23895 31860 26550 35400 10620 -4425 4425 -2655 -885 885 8850 12390 7965 26550 38940 55755 40710 30090 29205 38055 30975 23895 18585 15045 16815 8850 8850 6195 7080 -5310 -1770 9735 885 -9735 -1770 -2655 2655 7080 15045 11505 28320 52215 32745 23010 41595 31860 26550 12390 15930 23895 19470 885 5310 -885 885 11505 10620 -7965 -8850 -11505 -30090 -27435 -8850 14160 1770 1770 17700 19470 50445 28320 23010 10620 1770 -885 -2655 -5310 3540 2655 5310 15930 4425 -1770 3540 6195 -2655 -4425 -12390 -13275 -8850 -23895 -2655 16815 0 18585 -10620 7080 27435 7965 1770 -7965 -7965 -4425 -4425 -12390 -7080 2655 885 -2655 885 -5310 -12390 -15045 -17700 -18585 -30090 -23010 -30975 -14160 -1770 8850 -1770 14160 -19470 -6195 39825 15930 -5310 -7965 -17700 -13275 -23010 -22125 -13275 -4425 2655 6195 -6195 -12390 -18585 -14160 -18585 -21240 -25665 -45135 -50445 -46020 -6195 2655 -11505 -15045 -15930 2655 36285 6195 -9735 -8850 -17700 -26550 -23895 -21240 -7080 2655 8850 8850 1770 -2655 -7965 -7965 -15930 -22125 -26550 -64605 -84960 -55755 -21240 1770 -14160 -20355 -4425 7965 34515 -885 -6195 885 -9735 -17700 -21240 -25665 -15045 -2655 15930 31860 13275 3540 -7965 885 5310 -12390 -20355 -63720 -101775 -70800 -37170 -17700 -8850 -14160 -31860 18585 7965 -6195 0 -8850 -26550 -35400 -29205 -20355 -12390 4425 14160 19470 12390 10620 4425 7965 10620 -6195 -21240 -57525 -113280 -85845 -47790 -10620 -22125 -22125 -32745 19470 8850 -6195 -17700 -18585 -27435 -19470 -13275 -3540 7080 10620 23010 14160 15045 8850 11505 23010 21240 7080 -13275 -23895 -65490 -69915 -40710 -1770 -15045 -18585 -26550 -14160 -5310 -10620 -19470 -18585 -6195 5310 -1770 3540 19470 30975 41595 26550 23895 14160 15045 6195 3540 5310 7965 26550 27435 -22125 -40710 -3540 11505 -10620 -22125 -21240 -24780 -16815 -2655 -18585 4425 1770 -7080 -5310 15045 39825 44250 33630 34515 18585 6195 -3540 -15930 -14160 -5310 27435 18585 -6195 -41595 6195 -15930 8850 -14160 0 -15045 -7965 -3540 -5310 5310 -2655 -15045 -5310 22125 39825 40710 38940 22125 -3540 -13275 -12390 -23010 -7965 -1770 1770 -11505 4425 -29205 -14160 -15930 15045 27435 7965 -11505 -6195 4425 1770 1770 -3540 -13275 12390 20355 42480 51330 30090 14160 -15045 -21240 -12390 -4425 885 9735 885 -7965 8850 -15045 7965 8850 12390 38055 12390 3540 -2655 -6195 2655 -3540 12390 10620 21240 20355 34515 37170 13275 -2655 -22125 -6195 0 -10620 2655 6195 7080 14160 7080 18585 -885 -3540 26550 26550 15045 2655 -27435 -36285 -5310 5310 1770 14160 6195 11505 22125 21240 -2655 -12390 -7080 -7080 7965 -7080 2655 10620 7965 -14160 -12390 -7080 -13275 -14160 11505 21240 30975 -10620 -27435 -33630 -23010 -7965 -7080 -7080 -10620 -885 2655 -3540 -885 12390 14160 15045 7965 -885 7965 6195 1770 -24780 13275 885 15045 7965 -17700 -13275 16815 -9735 -15930 -22125 -10620 -12390 2655 0 -9735 -14160 -2655 -885 19470 32745 26550 19470 15045 6195 14160 5310 -885 -24780 4425 15045 14160 -2655 -9735 -11505 20355 885 -17700 -1770 5310 -4425 2655 5310 -2655 -6195 885 16815 21240 22125 25665 25665 14160 20355 9735 -10620 -10620 -11505 885 10620 13275 15045 15930 15930 24780 -1770 -2655 0 -4425 885 -2655 -2655 -1770 -4425 1770 13275 15930 17700 18585 29205 25665 3540 -12390 -12390 -14160 -15045 0 -12390 -9735 10620 21240 15045 29205 7080 13275 7965 -4425 -5310 -2655 0 -3540 -13275 -2655 6195 10620 10620 16815 17700 16815 14160 885 -7965 -21240 -17700 7080 -3540 -6195 3540 3540 23010 21240 12390 7080 3540 5310 -7080 -885 -6195 2655 -1770 7080 1770 4425 9735 24780 38940 30975 17700 7080 -2655 -13275 -4425 885 15930 0 -3540 -1770 13275 9735 16815 -7080 6195 -885 -6195 0 1770 -1770 -8850 -12390 -10620 -7080 0 11505 14160 10620 6195 13275 10620 11505 3540 36285 20355 4425 885 -1770 13275 -18585 -12390 -3540 -885 3540 11505 6195 1770 -11505 5310 -2655 -8850 -17700 -18585 -17700 -9735 -7080 -1770 -12390 -17700 -23895 -19470 10620 10620 -3540 -2655 -885 1770 0 17700 4425 1770 0 4425 6195 8850 0 -8850 -12390 -22125 -20355 -10620 3540 -6195 -13275 -5310 -885 -11505 -885 -5310 -5310 -1770 0 -885 1770 -2655 -885 -8850 -5310 -5310 -8850 -7080 -2655 -28320 -10620 3540 -44250 -16815 -2655 -9735 -26550 -7965 -6195 5310 5310 15045 -1770 1770 -1770 1770 0
-2655 -2655 -4425 -2655 885 0 3540 -3540 0 -4425 0 1770 7080 15045 -4425 2655 -885 2655 4425 -1770 -885 2655 -3540 2655 -2655 4425 -2655 -1770 3540 -1770 3540 2655 11505 7965 23010 26550 23895 25665 31860 32745 31860 28320 9735 34515 16815 21240 32745 24780 28320 12390 14160 18585 -2655 2655 -1770 2655 3540 -2655 5310 13275 7080 17700 36285 43365 38055 38055 49560 48675 55755 40710 44250 53100 39825 46020 49560 56640 44250 39825 31860 30975 -9735 -10620 885 -3540 -885 -3540 885 29205 21240 15045 23010 23010 30090 35400 34515 35400 46020 46905 30975 33630 22125 23895 36285 36285 33630 31860 17700 15045 18585 1770 16815 -2655 -885 4425 885 9735 -3540 2655 -1770 -885 15045 10620 32745 17700 22125 16815 24780 25665 30090 30975 29205 27435 9735 19470 9735 14160 6195 15045 12390 15930 -2655 -885 19470 8850 -11505 -885 -8850 885 0 5310 7965 -4425 885 885 -3540 4425 10620 15930 20355 21240 27435 19470 25665 24780 23010 21240 27435 18585 -885 15930 -7080 -22125 -3540 -9735 -12390 -5310 2655 6195 2655 2655 7965 1770 -885 0 -2655 -1770 6195 7965 18585 0 11505 19470 43365 34515 21240 21240 2655 15930 -31860 -30975 -22125 -15045 -13275 0 7965 3540 1770 1770 7080 -2655 12390 -3540 -2655 -2655 -5310 6195 8850 7965 10620 2655 22125 28320 7080 22125 -4425 6195 -27435 -32745 -34515 -22125 -13275 -5310 -885 -7080 4425 10620 6195 7965 1770 -9735 -11505 -6195 -8850 0 -885 4425 -885 -9735 -885 22125 12390 3540 885 -12390 -23895 -21240 -19470 -26550 -1770 11505 6195 -1770 5310 9735 3540 -4425 0 -7080 -22125 -32745 -34515 -26550 -18585 -4425 -7965 -9735 13275 46905 27435 -5310 3540 -10620 -24780 -7080 -9735 -23010 4425 6195 10620 -7080 3540 -3540 -1770 7080 15930 -4425 -23895 -38940 -41595 -34515 -29205 -29205 -31860 -8850 20355 63720 53985 -11505 -8850 -21240 -11505 -1770 3540 -7965 0 -2655 -7965 -11505 -9735 -5310 0 24780 29205 7080 -15045 -30090 -24780 -27435 -38055 -36285 -40710 -23895 -1770 46905 46905 5310 -8850 -13275 -32745 6195 -1770 -7080 1770 -8850 -5310 -4425 1770 -1770 13275 27435 29205 1770 -13275 -21240 -15045 -27435 -26550 -38940 -53100 -45135 -53985 -8850 15045 1770 7080 -12390 -27435 14160 -14160 -5310 -11505 -5310 -885 3540 -7080 -8850 15045 30090 23010 885 -19470 -14160 -10620 -8850 -12390 -20355 -23895 -27435 -30975 -23010 -17700 0 15930 11505 -7080 18585 -27435 -30975 -2655 -17700 -3540 2655 1770 -4425 8850 18585 29205 7965 -5310 -23010 -12390 -15930 -6195 -13275 -15930 -18585 -9735 -8850 -17700 -6195 15930 15930 19470 5310 -37170 -31860 -8850 -16815 -11505 1770 -3540 7080 29205 34515 33630 7080 -8850 -24780 -6195 -885 -2655 -6195 -15930 -11505 1770 885 -37170 -23010 -9735 17700 27435 16815 -21240 -19470 -20355 -36285 -36285 -9735 0 14160 22125 33630 31860 -11505 -22125 -27435 -2655 5310 -6195 -5310 -12390 -2655 15045 885 -12390 -15930 885 23895 6195 42480 -14160 -9735 -13275 -30090 -28320 -30090 -15045 -7965 -7965 8850 4425 -16815 -12390 -6195 8850 9735 5310 5310 -1770 8850 5310 -15930 -22125 -15930 -4425 18585 2655 45135 16815 1770 -885 -16815 -25665 -33630 -23895 -18585 -6195 -1770 1770 0 17700 22125 12390 11505 8850 13275 7965 9735 16815 6195 -16815 -4425 13275 -16815 10620 23010 23010 885 6195 0 0 3540 885 3540 6195 15045 17700 30090 32745 29205 30975 26550 21240 17700 22125 30975 18585 12390 -13275 -13275 -2655 -11505 8850 27435 18585 3540 15930 15045 24780 30975 27435 27435 20355 27435 34515 31860 38055 38055 45135 35400 37170 25665 38055 36285 15045 24780 4425 15045 7965 3540 20355 34515 29205 9735 14160 23010 28320 23895 30090 23010 26550 32745 42480 31860 33630 40710 38055 33630 30975 29205 36285 22125 12390 15930 -4425 -5310 8850 7965 20355 46905 55755 22125 8850 5310 4425 10620 13275 8850 15045 9735 15930 25665 21240 26550 26550 29205 35400 23010 23895 15930 9735 13275 21240 -9735 2655 -1770 23895 50445 49560 40710 21240 -1770 2655 4425 1770 -2655 3540 -7965 1770 10620 14160 6195 7080 15045 32745 7080 8850 11505 17700 11505 33630 3540 -1770 -2655 7080 35400 11505 -3540 5310 7965 4425 14160 5310 2655 1770 9735 6195 7965 4425 12390 18585 13275 13275 9735 14160 5310 12390 1770 15045 0 -3540 1770 14160 4425 -8850 -15930 -885 4425 13275 18585 16815 23895 32745 26550 10620 16815 15930 17700 15045 14160 885 12390 28320 24780 26550 10620 12390 885 -2655 -885 -3540 -9735 -6195 -8850 -22125 -19470 -10620 8850 6195 9735 15045 -7080 -4425 8850 11505 1770 -15930 -6195 11505 5310 10620 18585 8850 0 2655 -1770 -4425 -1770 -3540 -885 1770 -3540 0 -6195 -7965 -13275 -6195 0 2655 1770 9735 9735 -5310 -20355 -21240 -21240 -18585 -20355 -22125 885 -1770 885 3540 1770
4425 -1770 -1770 -885 -885 -1770 0 4425 -2655 2655 1770 2655 -3540 -6195 -1770 -6195 -2655 4425 3540 -3540 3540 885 885 4425 0 -1770 2655 -885 -885 -1770 4425 1770 -2655 -7080 -20355 -28320 -18585 -22125 -11505 -19470 -31860 -7965 -885 -23895 -46020 -35400 -12390 -19470 -30090 -19470 -26550 -15045 2655 1770 2655 2655 4425 1770 0 -6195 -1770 -9735 -18585 -34515 -38940 -44250 -48675 -34515 -25665 -14160 -15930 -38055 -32745 -35400 -38940 -38055 -25665 -17700 -16815 -32745 -29205 -12390 3540 885 885 -4425 6195 -15045 -23010 9735 0 -7080 -10620 -34515 -14160 -10620 -3540 -16815 -15930 -9735 -15045 -4425 -6195 -885 1770 -7080 -16815 -16815 -27435 -28320 -17700 885 885 10620 26550 15930 25665 30090 885 9735 11505 0 -2655 7965 6195 13275 885 3540 -1770 -1770 -4425 6195 9735 8850 17700 0 5310 -11505 -12390 -9735 2655 -4425 11505 15930 18585 30090 19470 15930 -1770 3540 -1770 -1770 4425 0 3540 12390 4425 -11505 -6195 885 -5310 -11505 -2655 -2655 -4425 -22125 -30975 -10620 -1770 15045 11505 26550 7080 20355 17700 9735 2655 6195 0 4425 0 0 -4425 -6195 3540 2655 -885 4425 0 7080 4425 7965 -10620 -21240 -10620 -18585 7080 30975 1770 26550 14160 9735 7965 4425 -5310 3540 1770 -4425 1770 5310 -5310 -885 -1770 12390 11505 9735 9735 -7965 1770 5310 -16815 -25665 7080 -15930 -13275 1770 24780 23010 15045 11505 10620 10620 0 4425 885 2655 9735 5310 5310 3540 7965 12390 23895 7965 8850 -4425 0 -18585 -28320 -17700 -7080 -4425 14160 25665 23895 24780 18585 10620 12390 4425 885 0 -7965 -15930 -885 5310 11505 18585 22125 22125 22125 27435 16815 12390 4425 -24780 -45135 -36285 -21240 -2655 12390 16815 29205 26550 9735 -6195 -12390 -4425 -12390 -7965 -8850 -7965 7965 15930 17700 29205 24780 22125 30975 31860 25665 19470 15045 -33630 -67260 -60180 -46020 4425 5310 13275 37170 41595 7965 -15045 -5310 -1770 2655 5310 18585 25665 34515 25665 35400 38940 37170 36285 34515 23895 28320 15045 6195 -42480 -76995 -69915 -33630 9735 2655 14160 28320 34515 6195 1770 885 17700 12390 19470 29205 33630 30090 15930 30090 40710 46020 32745 31860 17700 14160 1770 2655 -19470 -31860 -44250 -29205 3540 -4425 14160 23895 22125 23895 9735 16815 7965 7965 9735 4425 3540 -885 -3540 18585 33630 35400 33630 23895 7965 9735 -2655 -11505 -27435 -35400 -33630 -42480 -16815 -15930 23895 32745 15930 35400 15930 885 -2655 -5310 -4425 -12390 -13275 -5310 -1770 8850 16815 22125 35400 23895 23895 9735 7080 -8850 -16815 -31860 -28320 -38055 -13275 -10620 16815 18585 8850 11505 -3540 -16815 -2655 -5310 -11505 -14160 -11505 -3540 -3540 4425 19470 13275 23010 15930 18585 17700 7965 14160 -9735 -51330 -55755 -24780 -15045 6195 19470 2655 -16815 1770 -17700 -19470 -885 8850 -5310 -22125 -21240 -12390 -9735 7965 15930 12390 18585 15930 13275 18585 -2655 -8850 -19470 -35400 -61065 -31860 -12390 -3540 25665 -1770 -16815 -7080 -14160 -24780 -1770 -885 -4425 -28320 -28320 -13275 885 15045 11505 20355 13275 8850 11505 2655 -1770 -9735 -12390 -45135 -65490 -16815 -27435 8850 21240 12390 2655 -13275 -14160 -26550 -23010 -7080 -10620 -16815 -15930 -23010 -1770 7080 15045 15045 2655 8850 9735 3540 -885 -19470 -38055 -67260 -76110 5310 -7965 7080 23010 5310 18585 -8850 -885 -12390 -19470 -16815 -14160 -25665 -26550 -18585 -8850 13275 3540 4425 885 2655 5310 -6195 -11505 -30975 -41595 -48675 -49560 7080 18585 -2655 15045 -10620 -1770 -15930 -5310 -10620 -19470 -15045 -12390 -15930 -23895 -17700 -6195 7965 7965 0 5310 0 -7965 -15045 -20355 -33630 -37170 -46905 -31860 6195 3540 9735 2655 -12390 -14160 -13275 -9735 -8850 -7965 -10620 -19470 -15930 -10620 -3540 -10620 -5310 5310 0 -7080 -11505 -8850 -15045 -17700 -30090 -41595 -38940 -24780 -9735 7965 11505 30975 -6195 -14160 -11505 -5310 1770 -8850 -10620 -11505 0 -3540 -2655 -885 1770 11505 885 -3540 -15045 -12390 -19470 -18585 -26550 -33630 -28320 -19470 7080 4425 3540 -3540 3540 8850 2655 -3540 10620 11505 -4425 -1770 1770 3540 -1770 7965 11505 10620 7965 4425 -6195 -20355 -26550 -28320 -36285 -37170 -35400 -24780 16815 -4425 1770 3540 6195 27435 40710 41595 35400 29205 9735 7965 15045 15045 3540 1770 3540 -1770 4425 -1770 -19470 -15045 -15045 -23010 -22125 -29205 -34515 -25665 -8850 885 -1770 3540 -12390 -1770 17700 36285 21240 30090 36285 33630 24780 26550 18585 14160 4425 -885 -6195 -8850 885 885 885 -6195 -7965 -7965 -9735 -8850 -12390 -2655 -2655 1770 -885 -5310 -20355 -6195 5310 27435 24780 7965 7080 885 -7965 2655 6195 8850 11505 15930 14160 12390 -4425 -1770 885 -7080 885 2655 -2655 1770 -1770 0 -2655 0 3540 2655 2655 -885 -3540 885 -6195 -7080 -2655 16815 10620 7965 13275 20355 13275 11505 10620 17700 20355 18585 2655 0 1770 4425
-1770 -1770 3540 1770 -4425 1770 -4425 -2655 1770 2655 -885 3540 -3540 -5310 -6195 -3540 0 3540 -885 885 2655 -2655 -2655 4425 0 3540 -4425 -1770 3540 0 1770 -3540 -885 -13275 -20355 -26550 -23010 -37170 -29205 -39825 -39825 -24780 11505 -2655 -30090 -23895 -11505 -23895 -29205 -15045 -23895 -18585 0 -2655 0 -1770 1770 -885 -2655 -16815 -15045 -10620 -30090 -50445 -47790 -50445 -54870 -57525 -44250 -15930 -885 15930 3540 -17700 -30975 -28320 -31860 -21240 -15930 -36285 -28320 -19470 0 -1770 0 4425 8850 -22125 -4425 -9735 -22125 -19470 -37170 -14160 -22125 -34515 -23895 -28320 -37170 -34515 -46905 -53100 -61065 -35400 -35400 -15045 3540 -13275 -23010 -11505 -10620 4425 -2655 2655 11505 -23010 7965 -5310 -16815 -8850 5310 3540 0 -4425 -1770 -7080 -6195 -19470 -15930 -17700 -23895 -8850 6195 5310 14160 22125 13275 -6195 -15045 -17700 -4425 -1770 2655 -10620 -7080 11505 7965 9735 -1770 -885 -14160 -22125 -19470 -23895 -9735 -6195 -885 -11505 -13275 -11505 -4425 7965 23010 38940 31860 -1770 -19470 -12390 885 3540 -11505 -8850 -1770 12390 6195 4425 -1770 -5310 -20355 -22125 -22125 -35400 -29205 -28320 -33630 -30975 -29205 -22125 -14160 885 18585 42480 38940 23010 27435 885 2655 -13275 -4425 -5310 -14160 9735 1770 9735 885 -7965 -10620 -21240 -31860 -36285 -33630 -43365 -35400 -23010 -16815 -9735 -13275 4425 30090 46905 45135 26550 38940 -8850 11505 -1770 -885 7080 -3540 10620 2655 7080 -1770 8850 0 -7080 -13275 -22125 -27435 -24780 -15930 885 6195 8850 9735 15930 18585 45135 50445 46020 28320 -7080 8850 -7965 13275 -885 -21240 -13275 -6195 11505 7080 885 -7080 -885 -13275 -15930 -19470 0 15045 17700 16815 18585 15045 23895 17700 35400 38055 45135 33630 -19470 11505 6195 -7080 -15930 -6195 -8850 -3540 17700 11505 15045 6195 -4425 7080 885 12390 27435 23895 14160 7080 12390 1770 8850 23010 13275 38940 43365 28320 3540 16815 11505 6195 -12390 2655 6195 4425 19470 18585 19470 10620 2655 14160 9735 14160 28320 21240 -9735 -17700 -7080 -24780 -7965 -1770 4425 16815 39825 41595 16815 10620 4425 8850 12390 -10620 0 7965 28320 20355 6195 2655 7080 22125 15045 6195 18585 7965 -13275 -25665 -14160 -15045 -1770 885 -23895 10620 27435 23010 -13275 11505 2655 2655 -885 -7965 18585 22125 13275 7080 9735 3540 10620 15045 6195 10620 24780 5310 -9735 -3540 -15045 3540 13275 14160 -5310 -15045 11505 9735 -10620 -1770 885 7965 6195 15930 29205 21240 9735 7080 4425 -2655 3540 15045 19470 31860 21240 3540 5310 -4425 2655 -4425 -2655 15930 7080 -4425 -8850 -23010 -4425 -12390 0 25665 11505 9735 2655 15045 4425 7965 4425 -7965 3540 18585 29205 45135 21240 2655 -885 4425 -6195 -10620 -4425 7965 7965 -11505 -18585 -9735 885 -9735 0 8850 13275 -15930 -6195 10620 -2655 -2655 -7080 -19470 -7965 19470 30090 46020 27435 10620 1770 -4425 -15930 -5310 -4425 -5310 3540 885 -15930 -20355 -11505 -885 2655 7080 -885 -15045 0 2655 -7965 -10620 -5310 -5310 6195 22125 38940 40710 20355 5310 -885 -4425 -27435 -12390 -15045 -15045 885 10620 -40710 -6195 -15045 -15045 7080 12390 -1770 -15045 -12390 -16815 -7080 5310 7965 4425 9735 37170 46905 30975 4425 -2655 -19470 -24780 -21240 -16815 -20355 -27435 -4425 27435 -19470 7080 11505 14160 8850 3540 -12390 -38940 -41595 -23895 -9735 885 10620 12390 22125 24780 25665 15930 8850 -8850 -18585 -19470 -24780 -12390 -20355 -28320 -15045 12390 -5310 18585 9735 0 3540 1770 -19470 -48675 -53100 -30090 -16815 -6195 -885 23010 29205 21240 3540 6195 3540 -5310 -1770 885 -10620 -19470 -10620 -17700 -14160 -6195 -22125 9735 12390 14160 9735 -25665 -18585 -30975 -28320 -28320 -23895 -12390 -885 1770 12390 3540 -4425 4425 2655 -1770 9735 0 -8850 -3540 -4425 -7080 0 7965 -5310 13275 885 9735 14160 -12390 -24780 -15930 -7080 -17700 -23895 -18585 -17700 -7080 -8850 -7080 1770 10620 11505 5310 15930 7080 12390 2655 7965 -10620 -7965 13275 9735 30975 -7080 -3540 1770 885 -23895 -12390 -7080 -9735 -23010 -16815 -1770 -5310 -2655 15045 12390 11505 21240 24780 20355 11505 14160 13275 6195 -17700 -28320 -14160 8850 28320 0 3540 4425 -3540 -27435 -41595 -22125 -23895 -36285 -31860 -7965 -11505 0 -2655 -7080 11505 3540 -2655 -4425 9735 12390 0 0 -6195 -18585 -3540 15930 8850 885 -2655 3540 -14160 2655 -20355 -45135 -46905 -64605 -66375 -54870 -41595 -33630 -36285 -37170 -24780 -28320 -35400 -25665 -30090 -45135 -35400 -26550 -11505 3540 5310 885 7080 -3540 3540 4425 -4425 -15045 -31860 -24780 -39825 -61065 -57525 -65490 -71685 -74340 -69030 -74340 -106200 -90270 -78765 -63720 -75225 -61950 -58410 -47790 -24780 -14160 -7080 -1770 -1770 3540 2655 -4425 -2655 0 3540 7965 -12390 -8850 -10620 -23010 -26550 -22125 -27435 -9735 -48675 -25665 -18585 -14160 -20355 -11505 -12390 -7965 -14160 11505 -1770 3540 -4425 1770
-4425 1770 885 -1770 1770 4425 2655 -4425 -885 4425 885 885 10620 7965 -3540 -1770 3540 -885 -885 885 -1770 3540 3540 0 -2655 885 3540 1770 1770 -2655 -4425 -1770 7965 16815 23010 27435 25665 37170 27435 13275 15930 16815 -11505 -10620 -10620 11505 24780 19470 27435 24780 21240 19470 885 2655 1770 4425 3540 -2655 4425 -9735 -4425 20355 29205 35400 46020 44250 54870 53985 38055 13275 22125 -2655 -5310 10620 13275 20355 25665 30090 34515 34515 7080 -7965 -885 4425 885 0 -7080 -3540 3540 7080 18585 23895 26550 38940 41595 39825 21240 17700 19470 1770 1770 2655 7080 7080 3540 23010 28320 27435 18585 -885 7965 3540 885 -3540 -13275 -23895 -3540 0 2655 7965 17700 23895 18585 18585 14160 16815 21240 8850 15045 15045 7080 0 10620 885 8850 14160 10620 10620 8850 23010 1770 -885 -12390 -15930 5310 -20355 -14160 -885 13275 15045 15930 9735 15045 10620 21240 18585 21240 28320 9735 11505 7965 4425 -10620 7080 7965 25665 17700 11505 -3540 -9735 -15045 -30975 3540 -7965 -10620 -1770 4425 1770 -8850 -7965 -5310 -7965 -2655 5310 2655 -3540 -16815 -3540 -12390 -17700 -14160 5310 9735 37170 10620 15930 1770 -23010 -1770 -19470 15045 -1770 -3540 885 885 -7965 -10620 -8850 -20355 -9735 -15045 -7965 -22125 -18585 -20355 -19470 -23895 -14160 -7080 2655 23010 18585 24780 12390 9735 0 -3540 -2655 11505 8850 1770 -5310 -11505 -3540 0 -5310 -1770 -3540 -17700 -23895 -19470 -18585 -23895 -7965 -15045 -5310 -10620 -7965 12390 9735 9735 19470 -5310 -16815 -17700 -15045 -1770 8850 1770 -6195 -7080 3540 3540 3540 885 -7080 -23010 -31860 -21240 -29205 -17700 -9735 -6195 1770 -5310 -1770 -15930 -23010 -17700 -18585 -2655 -7965 -28320 -20355 -2655 4425 10620 -885 1770 8850 13275 2655 5310 -20355 -38940 -52215 -38940 -31860 -14160 -885 -5310 -2655 -3540 4425 -14160 -53100 -32745 -15045 -5310 -3540 -16815 -22125 -14160 9735 11505 11505 13275 23010 17700 1770 0 -23895 -38055 -52215 -28320 -16815 0 15045 2655 7080 8850 25665 15930 -24780 -17700 -26550 -11505 -8850 -6195 -16815 -11505 4425 -1770 2655 5310 14160 13275 14160 6195 -7965 -33630 -25665 -8850 3540 3540 8850 14160 21240 29205 46905 50445 5310 -34515 -18585 -7080 -7080 -4425 -7080 -20355 -3540 -1770 -2655 2655 11505 19470 27435 13275 885 -8850 8850 13275 8850 9735 13275 7080 14160 23895 37170 32745 9735 -2655 23010 1770 -9735 -6195 -3540 -14160 -2655 1770 5310 5310 9735 17700 24780 14160 16815 13275 15930 17700 11505 3540 -3540 -7965 -13275 -2655 885 4425 13275 -1770 8850 -6195 -11505 -2655 7965 -9735 7080 10620 7080 16815 17700 15930 17700 24780 23010 22125 15930 13275 8850 -885 885 -16815 -8850 -10620 -13275 885 35400 -7965 18585 -10620 -16815 -7965 12390 -21240 -2655 8850 10620 16815 21240 22125 32745 38940 27435 21240 17700 18585 18585 3540 0 -9735 3540 -7080 -1770 6195 54870 20355 6195 3540 -22125 2655 -7965 -26550 -3540 2655 13275 26550 25665 33630 44250 40710 19470 14160 11505 15930 13275 8850 -885 2655 -2655 -1770 -6195 5310 40710 885 -6195 -7080 -23895 -15930 -24780 -22125 -9735 6195 15930 9735 14160 29205 32745 38055 23895 1770 5310 15930 11505 7080 4425 -1770 -1770 -1770 18585 20355 26550 -5310 2655 -9735 -24780 -12390 -30090 -23895 -8850 -7080 1770 3540 12390 23010 20355 20355 6195 5310 11505 8850 10620 12390 1770 4425 8850 13275 10620 -8850 4425 5310 3540 2655 -14160 2655 -16815 -12390 -11505 -14160 3540 -3540 10620 13275 7965 15045 12390 14160 21240 1770 -885 11505 12390 13275 15045 16815 14160 -5310 -8850 -885 -18585 -7965 0 885 -23010 -30090 -25665 -26550 -14160 -5310 11505 6195 11505 19470 23895 20355 7080 6195 16815 11505 7965 3540 -885 23010 23010 -7080 -15930 6195 -4425 -15045 -10620 7080 -885 -15930 -34515 -25665 -20355 -11505 -1770 3540 13275 19470 22125 12390 3540 -1770 -5310 5310 6195 -3540 17700 17700 7965 -885 -7965 -19470 -6195 -2655 -1770 -6195 -15045 -7080 -38940 -45135 -35400 -13275 -12390 -13275 0 1770 15045 15045 7080 -885 1770 17700 30090 27435 38055 37170 33630 7080 2655 -29205 1770 3540 1770 -6195 -38055 -38940 -49560 -58410 -38940 -18585 -11505 -10620 -2655 -4425 -1770 7080 6195 11505 3540 18585 22125 9735 10620 16815 17700 21240 20355 3540 4425 -3540 -2655 10620 -11505 -11505 -33630 -18585 -18585 -35400 -38055 -24780 -26550 -29205 -11505 -3540 7080 -885 -1770 -6195 -15930 -15045 -34515 -33630 -21240 -30090 12390 7965 -4425 -2655 1770 4425 8850 19470 -8850 -7080 -4425 -4425 -24780 -23895 -9735 -6195 -20355 -18585 -23895 -22125 -16815 -12390 -29205 -17700 -17700 -23010 0 -8850 1770 0 1770 885 -3540 -1770 3540 -4425 -4425 3540 -3540 -10620 -7965 -23895 -7080 -9735 -35400 -20355 -24780 -13275 -15045 -5310 -12390 -3540 -13275 -12390 -15930 -2655 3540 3540 2655
0 885 0 -1770 -4425 -885 1770 2655 885 1770 2655 -885 -9735 -12390 -3540 -3540 -2655 -3540 885 4425 885 885 -1770 -1770 -1770 1770 885 -1770 885 -885 0 3540 -3540 -5310 -25665 -24780 -25665 -30975 -25665 -36285 -42480 -42480 -6195 -26550 -28320 -29205 -21240 -26550 -35400 -22125 -22125 -19470 -885 -2655 1770 -2655 -1770 2655 1770 -13275 -12390 -13275 -26550 -38940 -46905 -55755 -57525 -73455 -74340 -69915 -62835 -66375 -54870 -30090 -16815 -12390 -19470 -31860 -23010 -31860 -15045 -10620 -885 -2655 -1770 -1770 -7080 -28320 -13275 -12390 -29205 -58410 -62835 -78765 -77880 -84960 -93810 -107085 -89385 -64605 -56640 -35400 -16815 -2655 -10620 885 7080 -3540 9735 -15930 -1770 3540 1770 9735 10620 3540 23010 -1770 -26550 -28320 -36285 -39825 -35400 -19470 -17700 -30090 -22125 -22125 -11505 -6195 2655 -3540 -10620 -3540 885 10620 43365 24780 17700 -9735 -885 -885 -7080 3540 -3540 11505 0 -3540 0 7080 5310 20355 20355 0 -7080 -4425 -12390 -7965 -17700 -11505 -7080 -22125 -15930 -3540 12390 24780 20355 7965 -885 -14160 15930 -4425 -2655 14160 2655 9735 22125 26550 27435 25665 25665 15930 25665 19470 22125 13275 4425 7965 9735 0 -2655 7080 10620 28320 24780 -2655 -4425 -11505 9735 0 -6195 -3540 7080 8850 32745 32745 27435 15045 17700 26550 22125 34515 30975 28320 20355 9735 12390 15930 7080 16815 26550 33630 30090 885 -15045 -14160 14160 -6195 -12390 7080 11505 23010 27435 23895 14160 16815 5310 7080 12390 12390 15045 11505 19470 15045 8850 21240 21240 18585 41595 67260 37170 16815 -8850 5310 15045 -8850 -8850 9735 19470 19470 23895 19470 4425 6195 7080 -5310 -17700 -14160 -4425 6195 5310 10620 9735 16815 28320 31860 32745 44250 33630 19470 -10620 -9735 -6195 -4425 7080 1770 15045 13275 20355 20355 12390 4425 1770 -26550 -40710 -20355 -7080 -2655 5310 11505 15045 19470 22125 14160 15930 36285 15045 14160 885 -17700 -20355 3540 15045 7080 11505 23895 32745 30975 33630 23010 15045 -17700 -22125 885 22125 11505 1770 -885 4425 6195 9735 -3540 0 21240 30090 4425 -3540 -5310 -18585 11505 16815 23895 24780 32745 30975 38055 41595 44250 14160 885 -6195 18585 27435 11505 885 6195 7080 4425 1770 885 -15045 1770 14160 -11505 -11505 -8850 -29205 9735 30090 23895 22125 30975 30090 33630 46020 42480 15930 9735 12390 23895 24780 10620 10620 1770 11505 7080 -5310 -19470 -38055 -22125 -10620 -9735 -8850 10620 -20355 20355 39825 15045 15045 19470 25665 28320 33630 24780 23010 18585 11505 22125 27435 26550 8850 6195 -4425 -7080 -6195 -19470 -29205 -20355 -29205 -13275 -14160 14160 -15045 15930 3540 -6195 3540 0 13275 15045 23010 26550 30090 26550 10620 24780 22125 32745 17700 -7965 -16815 -7965 10620 -3540 -30090 -40710 -9735 -15930 8850 14160 -10620 -19470 -23895 -23010 -9735 -885 885 -5310 0 6195 41595 21240 4425 20355 30975 35400 11505 -15930 -15045 -10620 -885 -5310 -18585 -46020 -30975 -19470 2655 22125 -12390 -26550 -31860 -31860 -15930 -11505 -17700 -20355 -24780 -4425 17700 10620 885 19470 27435 23895 885 -17700 -15930 -6195 -7965 -13275 -20355 -51330 -19470 -18585 -10620 15045 14160 -20355 -34515 -19470 -14160 -24780 -32745 -34515 -34515 -15045 -20355 -19470 -7965 8850 15045 -885 -10620 -7080 -7965 -8850 -21240 -24780 -38940 -70800 -4425 -13275 -8850 -20355 12390 -5310 -17700 -10620 -17700 -36285 -34515 -46905 -46020 -42480 -46905 -39825 -22125 -11505 -2655 -9735 -13275 -7965 -7080 -7965 -15045 -18585 -35400 -48675 -14160 -11505 -885 -13275 4425 -4425 -14160 -12390 -23895 -37170 -38055 -38940 -39825 -40710 -49560 -26550 -22125 -11505 -7965 -7965 -10620 -11505 -13275 -7965 -12390 -5310 -15930 -16815 -15045 -5310 -9735 14160 4425 -15930 -7965 -14160 -17700 -23010 -15930 -19470 -30090 -31860 -23895 -22125 -15930 -12390 -7080 -12390 -22125 -15930 -7965 -7965 -1770 -12390 -14160 -25665 -21240 -7080 -7965 -10620 -11505 2655 6195 -34515 -21240 -7965 -10620 -15930 -4425 3540 8850 0 1770 -7080 -5310 -1770 -2655 -885 -5310 4425 8850 7965 -7965 -15045 3540 -3540 0 -4425 -12390 27435 6195 -24780 -16815 3540 8850 -2655 13275 22125 16815 18585 23895 15930 13275 11505 10620 4425 14160 14160 10620 10620 -7965 -885 -5310 -3540 885 -885 0 30090 32745 8850 14160 24780 18585 10620 30975 30975 13275 18585 15930 21240 38055 17700 16815 18585 25665 21240 25665 17700 -23010 -30975 -15930 3540 -3540 -4425 9735 9735 27435 48675 36285 45135 38940 42480 62835 60180 45135 48675 43365 43365 47790 44250 45135 41595 39825 30975 20355 18585 -15045 -11505 -12390 -4425 -1770 -1770 1770 7965 35400 40710 40710 34515 34515 48675 40710 37170 40710 43365 52215 31860 38055 44250 29205 11505 20355 12390 -2655 8850 7965 -885 -3540 -1770 2655 -1770 1770 -3540 -6195 -7080 5310 3540 2655 6195 0 -6195 6195 -17700 15045 3540 6195 -9735 11505 1770 2655 -5310 885 -13275 2655 -1770 885 -2655
-1770 2655 -885 -3540 0 -885 885 -2655 0 -2655 -2655 885 1770 885 4425 0 0 -885 -4425 1770 3540 885 -3540 4425 885 3540 1770 885 -885 885 1770 0 -2655 -2655 -4425 0 9735 6195 -8850 -16815 -22125 -7965 11505 885 -7080 -15930 -13275 -14160 -11505 -1770 -15930 -12390 -4425 885 3540 -3540 -3540 -3540 1770 -7965 -15045 5310 0 -3540 4425 -21240 -25665 -35400 -32745 -38940 -37170 -19470 -22125 -18585 -9735 -30975 -15930 -22125 -15930 -21240 10620 15045 1770 -1770 -3540 -4425 12390 -15045 -10620 -13275 -11505 -18585 -40710 -45135 -52215 -61950 -46020 -43365 -58410 -40710 -29205 -15930 0 885 7080 19470 20355 16815 1770 16815 -11505 2655 -2655 -4425 8850 -7080 -17700 -10620 -6195 -15930 -23895 -26550 -20355 -18585 -5310 -8850 2655 885 1770 885 2655 1770 9735 3540 -2655 0 15045 26550 15930 -9735 -3540 1770 -1770 -20355 -25665 7965 -3540 -1770 -7080 -4425 -4425 6195 9735 5310 -1770 -5310 -3540 -3540 -8850 -1770 9735 7965 4425 -10620 6195 24780 3540 -7965 -4425 -5310 -1770 7080 4425 8850 7965 11505 13275 7080 7965 4425 5310 -2655 -7965 -7965 -5310 -9735 -3540 9735 18585 15045 -3540 3540 14160 28320 17700 1770 8850 -7080 20355 21240 -2655 4425 23010 23895 21240 9735 14160 0 2655 -1770 -16815 -14160 -3540 -5310 4425 12390 13275 19470 13275 15045 19470 23010 13275 -3540 -10620 25665 13275 20355 19470 26550 36285 30090 24780 13275 12390 17700 24780 20355 8850 -6195 -885 -885 16815 10620 12390 18585 23010 29205 32745 31860 36285 30975 13275 26550 4425 13275 23010 34515 29205 22125 17700 15045 27435 44250 50445 39825 27435 0 -8850 4425 3540 4425 4425 10620 17700 28320 25665 57525 66375 22125 18585 17700 20355 4425 38940 38055 30090 15930 23010 33630 52215 51330 60180 46020 35400 13275 -4425 -10620 3540 4425 -3540 7965 13275 17700 19470 44250 59295 16815 5310 6195 42480 15045 46020 40710 17700 28320 31860 31860 37170 44250 42480 38940 38940 18585 885 0 7965 -3540 -8850 -7080 16815 6195 13275 37170 53985 19470 8850 21240 41595 32745 37170 26550 4425 11505 12390 7080 -6195 -885 -6195 4425 16815 11505 -2655 2655 -6195 0 -2655 7080 3540 1770 -7965 28320 47790 25665 11505 18585 30975 22125 7080 -3540 -19470 -23895 -23895 -22125 -38940 -39825 -35400 -9735 7965 8850 4425 885 -5310 -5310 12390 -5310 -7080 -17700 -24780 17700 54870 32745 15930 -4425 34515 13275 -15930 -31860 -42480 -53100 -50445 -54870 -46905 -46020 -39825 0 9735 4425 0 -885 -5310 -2655 -1770 -8850 -15930 -21240 -16815 6195 51330 23895 15045 -16815 4425 -12390 -32745 -64605 -54870 -61950 -45135 -43365 -42480 -42480 -19470 13275 12390 7965 0 -3540 885 -10620 -12390 -12390 -18585 -17700 -7080 3540 43365 15930 11505 -15045 -17700 -12390 -47790 -58410 -44250 -33630 -26550 -9735 -10620 -23895 1770 14160 12390 13275 6195 0 -10620 -13275 -17700 -10620 -8850 -9735 -4425 16815 51330 12390 -3540 -14160 -29205 -14160 -37170 -41595 -26550 -9735 -2655 12390 4425 7965 14160 23895 20355 12390 0 -15930 -19470 -11505 -15045 -4425 885 -10620 2655 8850 42480 18585 17700 -10620 -9735 -30090 -30090 -23895 -7080 1770 12390 14160 11505 7965 2655 17700 12390 7965 -8850 -7080 -11505 -7965 -8850 -10620 -7965 -10620 -885 1770 18585 14160 2655 10620 0 -35400 -15930 -19470 -8850 4425 17700 13275 -1770 -20355 -10620 6195 11505 1770 -1770 -6195 -5310 -7080 -11505 -18585 -6195 5310 6195 20355 22125 7965 -3540 -23895 -8850 -23010 -11505 -10620 -2655 3540 7965 -4425 -4425 -13275 -2655 0 -4425 3540 -1770 4425 -2655 0 -4425 -14160 -3540 885 885 18585 6195 885 7080 -17700 -12390 -7080 0 5310 12390 8850 -3540 -885 -9735 -8850 -6195 0 2655 1770 2655 3540 2655 -1770 -1770 -885 -9735 -5310 7080 15930 -24780 -3540 2655 -8850 -30975 -11505 13275 13275 14160 20355 5310 2655 -8850 2655 -885 -885 3540 0 885 -885 7965 -5310 0 -3540 -3540 -885 12390 11505 -15930 -10620 3540 -4425 -24780 -33630 8850 8850 10620 7080 14160 2655 2655 -1770 6195 6195 1770 11505 13275 10620 5310 6195 11505 7080 7965 13275 6195 4425 -11505 -4425 2655 -3540 -15045 -29205 -33630 -22125 -8850 -7080 4425 11505 7080 11505 8850 9735 15930 16815 10620 3540 23010 34515 19470 13275 -15930 -4425 15930 -1770 5310 -1770 885 4425 -23895 14160 -16815 -32745 -19470 -15045 -5310 2655 3540 23895 27435 18585 40710 39825 41595 47790 39825 28320 22125 18585 -3540 -11505 13275 10620 9735 4425 -1770 885 -3540 -8850 -30975 -24780 -20355 7080 30090 33630 18585 29205 19470 30090 29205 32745 23895 23895 24780 20355 12390 24780 28320 4425 1770 0 4425 2655 1770 -3540 -2655 -885 4425 11505 17700 12390 23895 15045 38055 19470 18585 55755 40710 31860 22125 45135 18585 25665 7080 8850 10620 20355 -885 3540 0 3540
0 885 -3540 -1770 0 1770 885 -885 0 3540 2655 1770 7965 8850 -885 0 -1770 1770 -885 2655 -885 -3540 -4425 0 885 -2655 3540 1770 2655 1770 -4425 -885 12390 18585 20355 29205 28320 29205 46020 50445 53100 43365 -12390 -12390 -10620 8850 30090 28320 32745 25665 21240 21240 1770 1770 3540 -2655 -3540 0 4425 19470 17700 31860 41595 50445 44250 25665 26550 16815 16815 2655 0 -15930 -8850 7080 15045 32745 30975 37170 46020 34515 -13275 -16815 -1770 -885 3540 -3540 -9735 25665 16815 -14160 0 7080 15930 7080 15045 13275 -3540 1770 -4425 -3540 -15930 -10620 11505 19470 21240 41595 53985 53985 23010 -2655 18585 2655 4425 -7965 -24780 -17700 -21240 -38055 -34515 -10620 -12390 -8850 -1770 -6195 -12390 -12390 -5310 885 6195 12390 4425 10620 13275 28320 39825 53985 37170 26550 17700 20355 885 1770 -18585 -18585 -45135 -55755 -40710 -20355 -6195 -5310 -2655 -1770 -4425 -5310 -885 -2655 4425 21240 9735 13275 16815 12390 17700 26550 31860 53100 33630 20355 -885 -14160 3540 -43365 -43365 -34515 -32745 -8850 -4425 -7080 -9735 -3540 -885 -7080 -885 -1770 -7080 3540 -6195 3540 6195 1770 17700 36285 39825 62835 31860 12390 -1770 -25665 -885 -49560 -59295 -38940 -24780 -11505 1770 3540 4425 5310 0 -5310 -7080 -2655 4425 7965 885 1770 -885 11505 8850 33630 67260 61950 7965 22125 17700 -22125 -11505 -30090 -69030 -43365 -23010 -15045 9735 19470 10620 12390 9735 -885 -15045 -14160 4425 2655 -885 -885 3540 8850 5310 34515 74340 55755 17700 6195 -9735 -22125 -7965 -30090 -61950 -42480 -23895 -6195 12390 10620 11505 18585 15930 4425 -25665 -46020 -27435 -10620 -10620 -4425 -885 -2655 -1770 33630 76995 66375 22125 -4425 -7965 -6195 -23895 -37170 -46020 -34515 -20355 7080 18585 29205 23895 26550 30090 15930 -13275 -38055 -40710 -16815 -15045 -13275 -18585 -9735 -7965 26550 87615 49560 30975 -11505 -8850 885 -22125 -42480 -45135 -17700 12390 23010 18585 18585 16815 20355 23895 24780 -11505 -31860 -18585 -15045 -15045 -17700 -29205 -15930 -16815 25665 68145 34515 26550 -14160 4425 -11505 -18585 -23895 -40710 -14160 23895 16815 11505 7965 14160 24780 37170 31860 -12390 -25665 -15930 -2655 -11505 -10620 -12390 -12390 -8850 19470 24780 -23895 -26550 -30090 2655 -7965 -13275 -29205 -19470 2655 15930 12390 11505 14160 29205 36285 38940 14160 -18585 -5310 -7965 -4425 -9735 -1770 -7080 -6195 7965 24780 7080 -38055 -58410 -19470 15930 -11505 -11505 -28320 -17700 -3540 0 8850 12390 23010 34515 35400 27435 4425 -16815 -7080 -2655 -8850 -18585 -19470 -13275 -5310 -1770 6195 6195 -29205 -50445 -15930 11505 -10620 -6195 -22125 -18585 -13275 -17700 7080 16815 30090 39825 28320 17700 -9735 -14160 -12390 -6195 -9735 -8850 -19470 -17700 -5310 -7080 0 -12390 -24780 -54870 -27435 -10620 -10620 -27435 -29205 -36285 -8850 -7080 -7965 11505 21240 25665 32745 5310 -20355 -17700 -885 -7965 -3540 -12390 -12390 -9735 -7080 -6195 885 -21240 -31860 -61950 -29205 1770 -22125 -24780 -27435 -29205 -4425 4425 5310 13275 24780 33630 30090 -7080 -24780 -14160 2655 9735 1770 -2655 -7965 -3540 -8850 -7080 -9735 -11505 -38055 -58410 -11505 -15930 -10620 -22125 -36285 -9735 3540 18585 18585 19470 31860 26550 23010 6195 -11505 -6195 6195 11505 3540 -6195 -7965 -9735 -15045 -7965 -7080 0 -30090 -38055 -21240 -7965 -5310 -7080 -25665 885 885 6195 4425 23010 21240 31860 27435 15930 4425 8850 14160 7965 1770 -1770 -8850 -4425 1770 9735 5310 -3540 -40710 -38940 -11505 -3540 7080 3540 -29205 -8850 -5310 -8850 -1770 9735 7080 20355 20355 21240 21240 15045 14160 3540 6195 1770 -11505 -8850 -3540 17700 2655 -17700 -15930 -26550 1770 -7965 -3540 -10620 -19470 -12390 -15930 -10620 -1770 5310 9735 6195 18585 28320 26550 24780 16815 3540 5310 -3540 -9735 -1770 885 15930 7080 -10620 -13275 10620 3540 -7965 -18585 -19470 -25665 -15930 -29205 -20355 -7965 -3540 1770 9735 18585 28320 38055 20355 16815 15045 2655 -885 -3540 -6195 1770 1770 10620 -1770 -885 15045 7965 0 1770 -4425 -3540 -22125 -21240 -15930 -15930 11505 7080 9735 16815 26550 27435 26550 21240 25665 7965 -3540 -6195 -9735 -11505 -5310 23895 0 2655 -885 -2655 2655 3540 0 -4425 -27435 -25665 -26550 -15045 1770 11505 6195 9735 20355 16815 13275 18585 27435 9735 16815 7965 -10620 -27435 2655 10620 6195 -12390 -18585 885 2655 -2655 14160 7965 -12390 -33630 -15930 -21240 -32745 -19470 -3540 -11505 -18585 -6195 -8850 18585 20355 21240 13275 1770 -6195 0 21240 23895 15045 -7965 -12390 -3540 -2655 -2655 1770 11505 13275 -15045 -21240 -37170 -40710 -33630 -25665 -8850 885 -15930 -26550 -15045 -12390 -16815 -20355 -24780 -11505 -12390 -15045 -7080 -2655 -4425 0 -1770 885 -3540 0 1770 -3540 -7080 -8850 -7080 -22125 -15045 -11505 3540 -6195 -27435 -30975 -16815 -10620 -25665 -18585 -15930 -6195 -12390 -15045 -6195 2655 1770 -4425 3540
885 -885 -1770 3540 3540 0 -1770 -2655 2655 -2655 -2655 -2655 -9735 -7080 5310 5310 -3540 -3540 -2655 -2655 -1770 -2655 -1770 -2655 1770 0 0 1770 -4425 -1770 0 -4425 -4425 -9735 -20355 -24780 -14160 -13275 -13275 -27435 -36285 -24780 10620 5310 23895 2655 -34515 -33630 -40710 -16815 -9735 2655 -1770 3540 -885 -885 -4425 3540 -1770 -20355 -11505 -15045 -32745 -28320 -19470 -885 -7965 -12390 -13275 -13275 -12390 -15045 2655 -7965 -16815 -23010 -30090 -31860 -30975 -19470 10620 10620 3540 -1770 -885 1770 -2655 -17700 -4425 3540 885 15045 15930 19470 27435 28320 23895 11505 16815 14160 13275 12390 5310 -3540 885 -8850 -19470 -25665 -885 7080 -11505 -4425 2655 6195 10620 0 -19470 6195 35400 32745 23895 33630 38055 38055 41595 21240 30090 30090 23010 23010 23895 10620 -1770 -6195 -16815 -13275 23010 21240 11505 -6195 2655 1770 1770 17700 11505 6195 9735 17700 6195 13275 18585 30090 21240 9735 12390 14160 28320 23010 17700 7965 7965 -885 0 -9735 -885 25665 14160 1770 0 17700 -12390 -9735 3540 14160 9735 -885 7965 13275 7965 0 4425 16815 12390 14160 18585 3540 7965 2655 2655 -9735 -11505 -7080 12390 20355 12390 -4425 -4425 16815 -24780 -17700 7965 15045 6195 -885 7965 -885 -6195 -2655 1770 6195 12390 3540 5310 -885 2655 -885 -8850 -3540 -1770 -7080 10620 35400 12390 1770 0 -13275 -26550 -21240 3540 6195 -4425 -8850 -885 885 -1770 -1770 -7965 0 -3540 -3540 885 2655 7965 12390 11505 14160 11505 9735 22125 53100 33630 15045 -9735 -23895 -15045 -9735 -2655 7080 -3540 -6195 0 -3540 -4425 -7080 -12390 -9735 -10620 -1770 2655 7965 11505 17700 20355 16815 20355 16815 23010 69915 41595 6195 -8850 -23895 -31860 -3540 -7965 7080 0 -9735 -8850 -12390 -17700 -9735 -8850 -13275 -21240 -15045 -6195 3540 10620 12390 7080 -885 -2655 2655 23895 71685 49560 5310 -9735 -23895 -41595 -3540 -4425 -8850 -19470 -33630 -24780 -19470 -15930 0 5310 -5310 -4425 -2655 -885 7080 8850 9735 -13275 -30090 -47790 -47790 -20355 36285 38055 0 -3540 -20355 -30975 -7080 -14160 -30975 -44250 -42480 -29205 -21240 7965 15930 31860 23010 15930 4425 0 0 15045 20355 -5310 -35400 -62835 -89385 -85845 -26550 15930 -17700 -6195 -13275 -34515 -7965 -23895 -34515 -46905 -30090 -16815 -6195 5310 31860 43365 46905 25665 -885 -5310 10620 16815 10620 -9735 -34515 -59295 -65490 -63720 -18585 16815 7080 15045 -3540 -33630 -2655 -18585 -32745 -31860 -18585 -7080 1770 6195 11505 28320 35400 17700 2655 5310 15045 12390 -7080 -14160 -36285 -42480 -40710 -25665 6195 44250 9735 9735 12390 -5310 15045 12390 -7965 -6195 -25665 -13275 -1770 -7080 -2655 23010 16815 6195 2655 11505 5310 -885 -2655 -19470 -26550 -23010 -2655 21240 36285 48675 28320 -7965 5310 14160 45135 38055 18585 5310 -26550 -23895 -28320 -28320 -17700 5310 2655 -7080 2655 15045 15930 10620 7080 7080 7965 21240 20355 46020 55755 52215 23010 -885 6195 30090 61950 54870 45135 37170 7080 -12390 -28320 -43365 -38055 -29205 -22125 -22125 6195 25665 25665 21240 19470 16815 24780 19470 24780 23010 38940 31860 17700 -17700 2655 6195 50445 59295 59295 60180 28320 0 -16815 -23010 -30090 -31860 -16815 -7965 13275 30975 22125 15045 25665 23010 30090 31860 38055 44250 30975 -4425 15045 -11505 -18585 -6195 38940 50445 61950 37170 22125 11505 7080 -10620 -23010 -17700 -1770 -2655 8850 19470 20355 28320 23010 23895 30975 30090 40710 23895 35400 18585 9735 -885 -8850 8850 40710 57525 53100 38055 26550 16815 7965 -8850 -12390 -23010 -11505 -15045 0 15930 20355 28320 20355 25665 29205 33630 38940 21240 29205 3540 -7965 -7965 1770 32745 34515 42480 22125 25665 10620 4425 0 -8850 -13275 -18585 -15045 -15930 -6195 885 13275 14160 24780 21240 21240 37170 39825 20355 29205 10620 -10620 -10620 -4425 30090 48675 37170 -3540 9735 4425 7965 9735 0 7965 -1770 -3540 -7965 -13275 -885 7080 22125 18585 23895 23895 44250 45135 30975 9735 -15045 -6195 -2655 2655 23895 51330 30975 7080 1770 885 15045 16815 22125 22125 9735 885 -3540 -13275 -9735 -6195 18585 23010 30975 38055 38055 54870 43365 21240 -8850 885 1770 -3540 9735 27435 13275 -15045 -1770 16815 21240 30090 21240 23010 16815 14160 17700 7965 11505 16815 18585 18585 23010 35400 40710 35400 41595 15045 6195 -2655 -885 1770 20355 -15045 -2655 0 15045 14160 20355 22125 27435 15930 23010 23010 14160 20355 21240 16815 9735 9735 6195 8850 23010 26550 23010 8850 8850 0 3540 2655 885 7080 22125 10620 0 -9735 -12390 -11505 -7965 -8850 -12390 -15045 -15930 -22125 -11505 -15045 -27435 -30975 -5310 3540 0 1770 -7965 -1770 -885 -4425 -3540 3540 -1770 3540 2655 -885 -4425 -885 -5310 -7965 -15930 -5310 -6195 -35400 -30975 -6195 -7080 -38055 -29205 -30090 -11505 -7080 -4425 -10620 -1770 2655 -3540 -3540
4425 -1770 -3540 -3540 4425 -885 -3540 -885 -1770 -2655 -1770 3540 6195 7080 5310 2655 -1770 -2655 -3540 -3540 885 2655 3540 0 -885 0 1770 -885 -1770 -885 -4425 -3540 -3540 -1770 -6195 1770 6195 9735 -1770 -7080 -11505 2655 7080 13275 28320 22125 6195 -4425 -8850 -4425 -3540 -4425 -1770 -4425 2655 -1770 -2655 885 0 7080 -12390 -4425 -7965 1770 11505 3540 -4425 2655 14160 4425 6195 9735 5310 6195 -8850 -29205 -15930 -10620 -6195 -2655 9735 6195 4425 3540 -1770 2655 14160 6195 -7080 7080 7080 15930 24780 30975 23010 22125 23895 26550 6195 3540 0 -10620 -22125 -22125 -15045 -20355 -22125 -9735 1770 4425 885 4425 -2655 885 20355 14160 10620 18585 28320 14160 15045 22125 19470 18585 25665 20355 8850 3540 -14160 -26550 -25665 -28320 -24780 -23895 -23010 -22125 -21240 -4425 7965 -2655 -3540 3540 5310 23895 26550 12390 14160 14160 5310 5310 13275 15930 15930 26550 21240 13275 9735 -5310 -11505 -22125 -32745 -25665 -15930 -20355 -20355 -3540 -8850 -7080 -1770 9735 5310 39825 24780 12390 11505 7080 16815 23895 27435 25665 26550 35400 40710 40710 38940 28320 19470 -4425 -15045 -16815 -34515 -37170 -33630 -19470 -6195 -885 885 35400 30090 43365 36285 1770 12390 14160 19470 29205 22125 25665 34515 46905 44250 38940 38940 26550 20355 15045 5310 -11505 -13275 -33630 -46905 -34515 -5310 -5310 -14160 16815 22125 23895 31860 15045 12390 21240 27435 26550 30975 24780 35400 38940 56640 44250 33630 24780 26550 21240 7965 -5310 7965 -19470 -43365 -26550 0 0 9735 23895 18585 20355 24780 21240 16815 14160 20355 20355 19470 14160 20355 28320 42480 37170 21240 22125 13275 15045 7080 -7080 -3540 -13275 -30090 -5310 23895 16815 12390 14160 16815 17700 9735 15045 21240 2655 1770 -1770 -9735 -15045 -26550 -14160 13275 4425 9735 12390 14160 15930 11505 -2655 -6195 -2655 -13275 2655 2655 13275 0 5310 15930 -2655 -7965 -5310 885 -9735 -17700 -21240 -34515 -42480 -70800 -63720 -30975 -19470 -10620 -2655 19470 15930 15045 -8850 -4425 -14160 -11505 11505 8850 -2655 5310 14160 7965 -14160 -15930 -29205 -36285 -30090 -21240 -38055 -46020 -66375 -92040 -83190 -30975 -11505 -13275 6195 9735 11505 -7080 -24780 -30975 -30090 -5310 19470 5310 16815 885 7965 14160 -20355 -43365 -51330 -48675 -35400 -40710 -40710 -46905 -60180 -74340 -36285 -2655 -7080 0 4425 8850 -10620 -20355 -31860 -36285 -33630 -11505 15045 14160 13275 -7080 -10620 23895 -25665 -53100 -58410 -44250 -40710 -38940 -31860 -28320 -26550 -23895 2655 16815 3540 -1770 4425 10620 -7965 -17700 -23010 -38940 -30090 -16815 -1770 32745 13275 -1770 -17700 23010 -18585 -35400 -42480 -28320 -29205 -26550 -19470 -7080 -11505 -4425 10620 8850 7965 -885 2655 -885 -22125 -29205 -22125 -30090 -23895 -7965 885 17700 19470 6195 -18585 17700 -17700 -26550 -25665 -15930 -23010 -19470 -2655 1770 2655 15045 22125 7965 -4425 -5310 -2655 -11505 -19470 -26550 -15045 -20355 -15045 -2655 13275 30975 19470 -2655 -5310 9735 -3540 -7080 -16815 -15930 -23010 -15045 1770 885 5310 15045 15045 -885 -11505 -2655 -15045 -19470 -23010 -27435 -23895 -15930 -15045 6195 31860 35400 33630 4425 4425 885 -885 -885 -7080 -18585 -8850 -4425 -4425 4425 6195 8850 9735 -2655 -8850 -1770 -7080 -4425 -2655 -16815 -7080 -6195 -3540 13275 24780 32745 19470 -12390 885 -13275 -885 885 -15930 -12390 4425 7080 15930 15045 10620 13275 15045 1770 2655 0 7080 4425 7965 3540 -11505 -2655 3540 18585 38055 26550 12390 -885 9735 -2655 7965 5310 -7965 -1770 7080 15930 12390 20355 11505 7965 6195 -885 0 3540 -885 7965 13275 7080 1770 885 7080 24780 34515 26550 -5310 0 0 18585 17700 8850 -1770 -1770 7965 5310 15045 15930 7965 1770 -6195 5310 0 4425 -2655 7080 19470 3540 1770 2655 15045 19470 30975 22125 0 -4425 10620 9735 9735 15930 25665 20355 15930 9735 10620 10620 7080 5310 -4425 10620 3540 7080 885 885 3540 3540 1770 6195 11505 21240 8850 -16815 -6195 3540 4425 -10620 -13275 15930 21240 23895 23010 -885 6195 5310 10620 13275 8850 6195 7965 885 7965 0 0 -1770 10620 12390 14160 15045 2655 -7965 -4425 -2655 -3540 -885 -10620 23895 22125 11505 6195 -4425 -5310 -3540 4425 19470 22125 23010 18585 9735 11505 1770 1770 -6195 6195 -3540 5310 32745 25665 14160 -3540 -4425 4425 -17700 -8850 12390 885 5310 8850 28320 20355 4425 19470 24780 12390 19470 14160 20355 21240 18585 10620 2655 7080 -8850 -8850 7080 11505 8850 1770 0 885 885 -16815 -28320 -15930 -1770 17700 36285 25665 24780 27435 7965 8850 17700 14160 20355 20355 29205 27435 2655 -6195 -885 3540 -885 1770 -885 -2655 3540 -885 -1770 4425 7965 7965 21240 17700 23010 7965 22125 8850 10620 38055 23010 27435 18585 19470 4425 1770 -7080 -10620 -10620 6195 -3540 -2655 -2655 1770
4425 1770 -2655 3540 4425 -885 3540 885 -3540 -885 -3540 1770 2655 -885 2655 4425 3540 -2655 0 0 -2655 -1770 -885 -1770 -1770 0 0 -1770 2655 3540 -885 -885 -6195 -6195 -4425 -885 10620 -1770 -3540 -2655 1770 12390 8850 13275 34515 20355 -885 -16815 -14160 -9735 -1770 -5310 1770 -3540 -2655 -3540 3540 -885 2655 9735 11505 -7080 -15930 -5310 -5310 -4425 -885 8850 15930 18585 7965 3540 10620 -885 -11505 -30090 -23895 -15045 -31860 -13275 10620 11505 1770 2655 -885 0 -8850 885 -15930 -20355 -17700 -5310 15045 26550 23010 33630 32745 42480 35400 25665 34515 19470 -3540 -10620 -15045 -28320 -33630 -36285 -5310 6195 -4425 -4425 -2655 -5310 -4425 -3540 -18585 -6195 16815 14160 17700 28320 24780 27435 28320 22125 15930 22125 16815 15930 14160 -2655 -5310 -26550 -37170 -43365 -38940 -9735 -11505 -14160 -3540 0 1770 6195 7965 -2655 3540 8850 10620 7965 18585 17700 13275 22125 13275 13275 24780 18585 14160 5310 3540 -885 -2655 -34515 -43365 -24780 -46020 -19470 -2655 10620 5310 11505 3540 12390 13275 7965 3540 6195 21240 20355 18585 29205 22125 23010 17700 13275 17700 9735 10620 18585 19470 -29205 -57525 -80535 -53985 -23895 -885 28320 9735 21240 19470 12390 13275 0 10620 17700 28320 26550 27435 30090 33630 29205 23010 22125 21240 15930 7965 15930 19470 -3540 -38940 -63720 -53985 -21240 15930 24780 2655 20355 21240 3540 -3540 3540 5310 10620 23010 12390 23010 12390 28320 41595 44250 36285 28320 27435 20355 3540 22125 13275 -38055 -69915 -50445 -23895 3540 0 0 19470 7965 6195 -15930 -17700 -11505 -8850 -14160 -20355 -23895 -13275 3540 30090 46020 39825 25665 27435 13275 7965 16815 9735 -22125 -52215 -52215 -18585 6195 -8850 1770 3540 -22125 -7080 -17700 -37170 -36285 -41595 -41595 -47790 -59295 -54870 -31860 -7080 23010 31860 17700 14160 17700 11505 15930 8850 -9735 -43365 -44250 -7965 4425 12390 3540 -25665 -39825 -42480 -46020 -61065 -58410 -57525 -52215 -41595 -54870 -59295 -45135 -28320 -14160 -6195 -2655 8850 11505 16815 15930 5310 2655 -11505 -44250 -19470 4425 2655 -13275 -33630 -53985 -61065 -62835 -63720 -49560 -32745 -31860 -27435 -26550 -37170 -38055 -40710 -27435 -23010 -15930 -885 1770 -2655 -1770 -10620 15045 5310 -7965 -10620 885 6195 0 -37170 -55755 -58410 -48675 -30975 -12390 -7080 3540 0 5310 -5310 -18585 -39825 -32745 -22125 -16815 -15045 -18585 -5310 -9735 -8850 6195 19470 14160 3540 -7080 -18585 -11505 -37170 -38055 -25665 -11505 17700 11505 7965 20355 17700 15045 8850 -17700 -29205 -38055 -28320 -11505 -13275 -7080 -2655 -17700 -5310 0 15045 41595 13275 -7965 -13275 885 -20355 7965 26550 19470 17700 13275 19470 16815 8850 -1770 -5310 -15930 -17700 -19470 -15045 -20355 -19470 -11505 -885 -15930 -8850 11505 28320 39825 23895 1770 -15930 7080 13275 21240 30090 24780 17700 7965 17700 14160 11505 5310 -6195 -11505 -7080 -7080 -8850 -20355 -14160 -12390 885 -6195 0 6195 30090 36285 28320 1770 -23895 1770 21240 34515 21240 17700 5310 5310 2655 10620 0 -1770 -11505 -15930 -7965 -2655 -11505 -13275 -10620 -11505 -11505 1770 -9735 885 30090 19470 28320 6195 -10620 -16815 12390 25665 16815 7965 9735 4425 3540 5310 -885 -7965 -14160 -13275 -10620 -4425 885 0 -4425 -11505 -6195 6195 5310 7965 38055 15045 21240 -7080 10620 -18585 -7965 18585 7965 8850 4425 5310 0 9735 12390 14160 6195 5310 2655 0 7965 2655 -4425 2655 6195 9735 2655 5310 33630 19470 12390 -885 16815 -4425 7965 25665 20355 11505 15045 11505 14160 15045 21240 22125 15045 13275 11505 885 1770 1770 885 3540 19470 10620 7080 12390 15045 8850 -15930 -14160 1770 23895 20355 14160 15045 8850 9735 2655 9735 10620 13275 14160 12390 11505 7080 7080 8850 7080 11505 2655 15930 16815 22125 9735 16815 23010 5310 -12390 -4425 21240 15045 -1770 9735 23010 22125 18585 16815 12390 18585 12390 18585 6195 5310 7965 5310 13275 14160 11505 12390 27435 10620 12390 9735 -17700 2655 -2655 1770 17700 0 -2655 885 14160 27435 15045 23895 24780 23895 19470 15045 15045 7965 885 10620 13275 10620 2655 14160 24780 22125 6195 8850 -15045 4425 885 0 4425 -7080 11505 -9735 -3540 3540 3540 5310 3540 15045 25665 26550 30090 12390 8850 15930 -885 -25665 -26550 -3540 1770 3540 30975 23895 15045 -4425 0 1770 -15930 -4425 11505 -11505 -7965 -885 4425 3540 885 11505 2655 6195 885 4425 885 -6195 -28320 -38940 -45135 -46020 -33630 -36285 -885 14160 15930 885 -885 0 -3540 885 -24780 -26550 -27435 1770 8850 -3540 5310 -10620 -7965 -4425 -885 23895 14160 -2655 -7965 0 -25665 -23895 -2655 0 0 885 2655 2655 -1770 -3540 0 2655 885 7965 17700 11505 19470 15930 8850 1770 -2655 20355 9735 19470 16815 9735 11505 -1770 -7965 -3540 -1770 9735 -3540 -3540 -1770 -2655
-4425 885 0 -885 0 1770 -1770 0 0 1770 -885 1770 7965 13275 4425 3540 1770 -4425 1770 3540 2655 2655 -3540 3540 885 -4425 4425 3540 -885 4425 0 3540 0 6195 23010 27435 22125 28320 27435 33630 31860 27435 -12390 9735 19470 27435 21240 24780 23010 13275 14160 8850 2655 -1770 0 3540 -2655 -1770 5310 15930 19470 4425 12390 33630 34515 34515 46020 46905 26550 -14160 -31860 -38055 -28320 -7080 14160 0 -10620 885 -885 14160 -6195 -7080 -3540 885 -3540 2655 -13275 14160 0 13275 15930 19470 37170 15930 28320 37170 29205 24780 21240 5310 -4425 7965 22125 12390 9735 -15045 -23010 -4425 9735 11505 9735 2655 2655 6195 -1770 20355 -8850 -885 5310 7965 22125 28320 36285 47790 30975 19470 20355 20355 17700 10620 14160 -8850 -23010 -28320 -25665 -28320 -885 24780 23895 14160 -1770 2655 -1770 12390 -3540 -14160 7080 17700 23010 22125 15045 12390 7965 8850 15045 6195 17700 19470 7965 -1770 -7080 -16815 -22125 -38940 -21240 30975 26550 -9735 1770 15930 12390 13275 -2655 7965 21240 23895 22125 12390 7965 2655 885 2655 2655 10620 9735 6195 2655 1770 1770 1770 -885 -9735 -9735 15930 -9735 -2655 3540 31860 4425 16815 23010 30090 29205 26550 24780 15045 11505 4425 -1770 -7080 -7965 885 2655 -3540 5310 5310 2655 0 8850 22125 28320 19470 -11505 12390 9735 26550 17700 25665 23010 21240 23895 35400 24780 21240 14160 9735 26550 11505 9735 7080 15930 5310 11505 15045 23895 19470 40710 44250 46905 9735 11505 20355 15045 20355 27435 40710 51330 34515 24780 30090 23895 19470 12390 11505 11505 20355 28320 7080 10620 12390 16815 24780 36285 45135 48675 60180 64605 30975 21240 13275 15930 20355 36285 46905 44250 27435 22125 26550 14160 16815 9735 8850 11505 44250 35400 4425 2655 6195 20355 25665 46905 50445 55755 68145 68145 22125 37170 20355 5310 26550 39825 43365 31860 10620 16815 20355 6195 9735 5310 7080 20355 49560 29205 -13275 -15045 -3540 1770 16815 24780 32745 43365 57525 71685 42480 35400 4425 1770 25665 36285 20355 6195 9735 2655 4425 -885 1770 885 2655 10620 27435 -5310 -21240 -13275 -8850 -2655 -7965 5310 6195 23010 41595 73455 43365 23895 5310 -5310 16815 28320 14160 -16815 -4425 885 -4425 -7080 0 -1770 0 2655 885 -19470 -15045 -10620 -19470 -5310 -14160 -14160 -4425 15930 51330 69915 38940 15930 7080 9735 19470 33630 -8850 -35400 -885 -12390 -8850 -13275 -11505 -5310 885 1770 -5310 -8850 -13275 -23010 -15930 -1770 -3540 -3540 10620 21240 47790 61950 20355 5310 -885 13275 17700 34515 -23010 -18585 -4425 -12390 -18585 -24780 -8850 -7965 -5310 -7080 -10620 -13275 -13275 -31860 -6195 10620 12390 15930 17700 34515 47790 64605 11505 -16815 -5310 7080 12390 23895 -7965 0 -885 -5310 -14160 -7965 7080 3540 -6195 5310 -7965 -26550 -21240 -20355 5310 15930 23010 15045 18585 26550 47790 42480 -7080 -6195 -13275 1770 11505 9735 15930 9735 1770 1770 -1770 -1770 885 -3540 5310 -7080 -23010 -34515 -34515 -885 15930 10620 19470 17700 6195 28320 38055 24780 -15045 -12390 15930 6195 9735 14160 14160 9735 15045 5310 3540 9735 7080 13275 6195 -12390 -23010 -32745 -15045 885 9735 10620 7080 -1770 7080 40710 31860 885 -30975 -26550 -23895 -10620 19470 -5310 11505 6195 18585 15045 9735 14160 16815 26550 10620 14160 -9735 -10620 -1770 -5310 3540 4425 -3540 -4425 8850 26550 14160 -11505 -42480 -30090 -15930 -3540 16815 -9735 10620 10620 22125 12390 18585 16815 17700 15930 16815 17700 10620 7965 4425 -11505 -7080 -14160 -14160 -885 6195 12390 -2655 -30090 -35400 -25665 -12390 -13275 2655 4425 3540 -8850 -17700 4425 11505 4425 -2655 -3540 16815 27435 30090 20355 14160 -2655 -4425 -8850 -13275 -15930 -24780 -5310 -23010 -40710 -15930 6195 2655 -8850 0 7965 5310 -16815 -26550 -3540 6195 0 885 12390 19470 33630 37170 28320 27435 14160 885 -6195 -6195 -18585 -24780 -14160 -28320 -34515 -8850 7080 4425 -3540 3540 18585 25665 9735 -13275 -4425 9735 6195 8850 22125 23895 25665 32745 26550 23895 12390 3540 -1770 -16815 -27435 -37170 -36285 -24780 -21240 -4425 -7080 1770 -3540 -4425 7080 36285 28320 -4425 6195 6195 4425 13275 17700 26550 35400 42480 38940 27435 26550 7080 -9735 -19470 -30975 -45135 -45135 -38940 -1770 -27435 -13275 -4425 3540 0 -3540 1770 13275 -2655 7080 18585 16815 19470 21240 24780 19470 18585 15045 17700 24780 7080 885 9735 -23010 -23010 0 -12390 13275 -7965 -1770 -3540 -3540 3540 -2655 -7080 -28320 -21240 -22125 -5310 -3540 -4425 -7080 5310 0 11505 3540 5310 9735 2655 6195 11505 885 -885 12390 -885 -7965 5310 1770 0 -2655 -4425 885 0 10620 7965 7080 1770 14160 8850 18585 6195 8850 48675 14160 10620 19470 30975 10620 14160 2655 9735 12390 17700 -1770 -1770 0 -885
2655 1770 3540 3540 3540 -4425 -885 0 3540 0 1770 0 -4425 0 0 -2655 4425 -3540 -3540 -3540 -4425 -885 -2655 3540 2655 1770 3540 -3540 -2655 3540 3540 885 14160 14160 0 885 -4425 -7965 16815 13275 11505 10620 -6195 16815 9735 6195 17700 12390 17700 12390 9735 14160 -885 -4425 -3540 3540 -4425 -885 -3540 15045 19470 -885 -4425 2655 -22125 -19470 -27435 -40710 -25665 885 -13275 9735 8850 2655 7080 -4425 -15930 -17700 0 -6195 -17700 -15930 3540 3540 2655 -3540 11505 13275 18585 -22125 -15930 -21240 -20355 -29205 -25665 -30975 -23895 -8850 -9735 -4425 -7080 -10620 -1770 -17700 -18585 -14160 -6195 -1770 -13275 -8850 -9735 0 -2655 -5310 -2655 14160 -28320 -35400 -22125 -10620 -23010 -12390 -11505 -4425 -3540 5310 10620 18585 5310 885 -1770 -14160 -19470 -11505 -18585 -7080 -7080 1770 18585 -7965 -1770 4425 4425 -5310 -37170 -44250 -25665 -22125 -30090 -20355 -5310 12390 12390 26550 15045 9735 -7965 -1770 -2655 -4425 -7080 -6195 -10620 -25665 -13275 -885 7080 -12390 -885 -14160 -14160 -21240 -29205 -38055 -23010 -29205 -23895 -19470 -3540 16815 18585 31860 34515 32745 22125 26550 25665 17700 14160 -885 -5310 -10620 -12390 -8850 -9735 -10620 -5310 -31860 -23010 -46905 -53100 -50445 -30090 -25665 -11505 -1770 7080 10620 22125 30090 37170 42480 40710 28320 22125 14160 11505 6195 885 5310 1770 4425 -15045 -3540 12390 -17700 -31860 -39825 -62835 -33630 -9735 -15045 -2655 -2655 -2655 1770 12390 21240 27435 30090 31860 26550 25665 15930 3540 12390 7080 15045 31860 5310 7965 25665 -14160 -26550 -29205 -38940 -52215 -24780 885 -1770 2655 -3540 8850 13275 15930 22125 29205 17700 6195 7965 7965 8850 5310 885 2655 15930 46905 27435 16815 -7080 -15045 -14160 -24780 -45135 -26550 -1770 4425 5310 13275 11505 17700 18585 24780 20355 37170 10620 -9735 -885 4425 3540 8850 -885 7080 33630 51330 37170 34515 8850 -3540 -15930 -33630 -38940 -7080 16815 23895 25665 26550 9735 13275 13275 10620 36285 38940 13275 -13275 -885 8850 10620 18585 23010 18585 30090 60180 43365 44250 16815 -3540 -22125 -30090 -2655 19470 36285 38940 22125 7965 14160 1770 -7080 -6195 24780 35400 13275 -5310 5310 15930 22125 23895 23010 18585 30975 3540 -15045 3540 -9735 7080 -3540 -26550 13275 39825 29205 21240 23895 9735 1770 -10620 -12390 -1770 28320 27435 13275 -5310 -885 2655 11505 11505 8850 6195 -2655 -29205 -49560 -32745 -17700 9735 11505 -32745 3540 19470 15045 14160 5310 2655 -5310 -10620 -10620 9735 29205 21240 7965 -10620 -15930 -11505 -15045 -7965 -885 -10620 -18585 -28320 -40710 -37170 -19470 10620 5310 -38940 -7965 5310 7080 -885 -2655 -5310 -6195 -3540 -885 10620 15045 3540 -15045 -20355 -22125 -15045 -17700 -16815 -24780 -21240 -24780 -19470 -29205 -46020 -19470 -13275 12390 -20355 -16815 885 0 -14160 -19470 0 -8850 5310 6195 -3540 -7080 -15930 -25665 -23010 -22125 -15045 -31860 -26550 -42480 -27435 -18585 -27435 -51330 -46905 -23895 -1770 4425 -30975 -17700 -20355 -15930 -5310 -16815 -3540 9735 16815 7965 -5310 -21240 -19470 -15930 -10620 -9735 -14160 -16815 -17700 -25665 -19470 -17700 -20355 -47790 -23895 -1770 22125 -7080 -21240 -36285 -28320 -29205 -1770 -6195 1770 22125 29205 11505 -18585 -20355 -7965 -9735 -10620 -6195 -13275 -11505 -5310 -17700 -15930 -15930 -16815 -38055 -13275 -21240 6195 -3540 0 -30975 -25665 -27435 -6195 0 16815 22125 18585 1770 -885 -8850 -10620 -7080 -8850 -5310 -2655 8850 5310 -8850 1770 4425 11505 -14160 -21240 -15045 1770 8850 -5310 -27435 -22125 -4425 -5310 -4425 7080 4425 7965 -6195 -3540 2655 -7080 -7965 -4425 2655 1770 7080 1770 -885 13275 8850 -1770 5310 -1770 16815 14160 -24780 -24780 -15045 3540 11505 18585 12390 8850 8850 6195 -2655 1770 885 2655 3540 885 -1770 -1770 -8850 11505 11505 5310 885 2655 -885 -30975 7080 12390 3540 -27435 -5310 -3540 8850 11505 2655 885 4425 7080 2655 11505 21240 22125 13275 11505 9735 5310 -6195 0 1770 7965 23895 3540 -3540 -13275 3540 -3540 -885 -14160 -13275 -20355 3540 -12390 -10620 15930 10620 10620 17700 25665 28320 23895 13275 20355 11505 -885 -2655 3540 0 15930 15930 -885 -19470 -9735 2655 885 3540 -9735 -7080 -20355 -2655 -18585 -11505 4425 3540 16815 6195 15045 9735 5310 7965 4425 11505 13275 9735 18585 6195 12390 20355 -12390 -29205 -14160 -4425 3540 -1770 15045 5310 -7965 7965 4425 5310 7965 7080 3540 4425 14160 3540 9735 3540 15045 23010 26550 31860 32745 31860 12390 11505 3540 -10620 -14160 -1770 1770 -4425 -3540 14160 24780 17700 15045 17700 23895 33630 29205 31860 38940 34515 45135 29205 30975 31860 35400 25665 31860 19470 7080 10620 1770 -885 -2655 -4425 2655 -3540 4425 -4425 -12390 -12390 2655 3540 2655 5310 8850 8850 8850 -24780 13275 -4425 -6195 -20355 -3540 2655 0 -6195 -4425 -23010 2655 3540 1770 3540
