-765376 1195900 430524 -980638 -1554670 191344 -454442 -502278 -1698178 -1961276 645786 -1124146 23918 1100228 1148064 502278
-956720 1124146 -574032 1578588 980638 -119590 1506834 -1937358 -1817768 693622 -1171982 -813212 502278 -1052392 -1698178 741458
645786 -574032 980638 382688 71754 -1817768 -119590 574032 -1171982 1171982 -693622 1004556 1435080 1554670 -47836 -1387244
-645786 -358770 -1267654 1148064 502278 741458 -2391800 -908884 287016 -287016 -1195900 1100228 669704 71754 1100228 -861048
-621868 382688 1124146 23918 -1458998 1052392 1124146 334852 1171982 -765376 191344 23918 -3037586 -1698178 -1219818 -2128702
95672 932802 -1602506 -1793850 1124146 -908884 837130 -406606 239180 95672 741458 1076310 -215262 -932802 191344 454442
454442 191344 550114 1124146 932802 -908884 -119590 1387244 -1889522 -2200456 884966 -1889522 -1937358 -1195900 23918 -789294
1482916 1291572 -430524 -908884 -1435080 1219818 -95672 -1769932 597950 789294 -1674260 -2056948 1650342 430524 287016 -1100228
-2367882 -2726652 263098 -47836 -71754 -167426 23918 574032 287016 1124146 430524 334852 -119590 -1100228 645786 621868
621868 -1243736 765376 -239180 -908884 526196 -2439636 -502278 1291572 -47836 -693622 -406606 -430524 -1985194 -932802 1435080
